elements: [Ca, Mg]
E0: [0, 0]
deltaSplineBins: 0.001
embeddings:
  0: {ndensity: 1, FS_parameters: [1, 1], npoti: FinnisSinclairShiftedScaled, rho_core_cutoff: 100000, drho_core_cutoff: 250}
  1: {ndensity: 1, FS_parameters: [1, 1], npoti: FinnisSinclairShiftedScaled, rho_core_cutoff: 100000, drho_core_cutoff: 250}
bonds:
  [0, 0]: {nradmax: 3, lmax: 3, nradbasemax: 15, radbasename: SBessel, radparameters: [5.25], radcoefficients: [[[1, 0, 0, 0, 0, 0, 0, 0, 0, 0, 0, 0, 0, 0, 0], [1, 0, 0, 0, 0, 0, 0, 0, 0, 0, 0, 0, 0, 0, 0], [1, 0, 0, 0, 0, 0, 0, 0, 0, 0, 0, 0, 0, 0, 0], [1, 0, 0, 0, 0, 0, 0, 0, 0, 0, 0, 0, 0, 0, 0]], [[0, 1, 0, 0, 0, 0, 0, 0, 0, 0, 0, 0, 0, 0, 0], [0, 1, 0, 0, 0, 0, 0, 0, 0, 0, 0, 0, 0, 0, 0], [0, 1, 0, 0, 0, 0, 0, 0, 0, 0, 0, 0, 0, 0, 0], [0, 1, 0, 0, 0, 0, 0, 0, 0, 0, 0, 0, 0, 0, 0]], [[0, 0, 1, 0, 0, 0, 0, 0, 0, 0, 0, 0, 0, 0, 0], [0, 0, 1, 0, 0, 0, 0, 0, 0, 0, 0, 0, 0, 0, 0], [0, 0, 1, 0, 0, 0, 0, 0, 0, 0, 0, 0, 0, 0, 0], [0, 0, 1, 0, 0, 0, 0, 0, 0, 0, 0, 0, 0, 0, 0]]], prehc: 0, lambdahc: 0, rcut: 6, dcut: 0.01, rcut_in: 0, dcut_in: 0, inner_cutoff_type: distance}
  [0, 1]: {nradmax: 3, lmax: 3, nradbasemax: 15, radbasename: SBessel, radparameters: [5.25], radcoefficients: [[[1, 0, 0, 0, 0, 0, 0, 0, 0, 0, 0, 0, 0, 0, 0], [1, 0, 0, 0, 0, 0, 0, 0, 0, 0, 0, 0, 0, 0, 0], [1, 0, 0, 0, 0, 0, 0, 0, 0, 0, 0, 0, 0, 0, 0], [1, 0, 0, 0, 0, 0, 0, 0, 0, 0, 0, 0, 0, 0, 0]], [[0, 1, 0, 0, 0, 0, 0, 0, 0, 0, 0, 0, 0, 0, 0], [0, 1, 0, 0, 0, 0, 0, 0, 0, 0, 0, 0, 0, 0, 0], [0, 1, 0, 0, 0, 0, 0, 0, 0, 0, 0, 0, 0, 0, 0], [0, 1, 0, 0, 0, 0, 0, 0, 0, 0, 0, 0, 0, 0, 0]], [[0, 0, 1, 0, 0, 0, 0, 0, 0, 0, 0, 0, 0, 0, 0], [0, 0, 1, 0, 0, 0, 0, 0, 0, 0, 0, 0, 0, 0, 0], [0, 0, 1, 0, 0, 0, 0, 0, 0, 0, 0, 0, 0, 0, 0], [0, 0, 1, 0, 0, 0, 0, 0, 0, 0, 0, 0, 0, 0, 0]]], prehc: 0, lambdahc: 0, rcut: 6, dcut: 0.01, rcut_in: 0, dcut_in: 0, inner_cutoff_type: distance}
  [1, 0]: {nradmax: 3, lmax: 3, nradbasemax: 15, radbasename: SBessel, radparameters: [5.25], radcoefficients: [[[1, 0, 0, 0, 0, 0, 0, 0, 0, 0, 0, 0, 0, 0, 0], [1, 0, 0, 0, 0, 0, 0, 0, 0, 0, 0, 0, 0, 0, 0], [1, 0, 0, 0, 0, 0, 0, 0, 0, 0, 0, 0, 0, 0, 0], [1, 0, 0, 0, 0, 0, 0, 0, 0, 0, 0, 0, 0, 0, 0]], [[0, 1, 0, 0, 0, 0, 0, 0, 0, 0, 0, 0, 0, 0, 0], [0, 1, 0, 0, 0, 0, 0, 0, 0, 0, 0, 0, 0, 0, 0], [0, 1, 0, 0, 0, 0, 0, 0, 0, 0, 0, 0, 0, 0, 0], [0, 1, 0, 0, 0, 0, 0, 0, 0, 0, 0, 0, 0, 0, 0]], [[0, 0, 1, 0, 0, 0, 0, 0, 0, 0, 0, 0, 0, 0, 0], [0, 0, 1, 0, 0, 0, 0, 0, 0, 0, 0, 0, 0, 0, 0], [0, 0, 1, 0, 0, 0, 0, 0, 0, 0, 0, 0, 0, 0, 0], [0, 0, 1, 0, 0, 0, 0, 0, 0, 0, 0, 0, 0, 0, 0]]], prehc: 0, lambdahc: 0, rcut: 6, dcut: 0.01, rcut_in: 0, dcut_in: 0, inner_cutoff_type: distance}
  [1, 1]: {nradmax: 3, lmax: 3, nradbasemax: 15, radbasename: SBessel, radparameters: [5.25], radcoefficients: [[[1, 0, 0, 0, 0, 0, 0, 0, 0, 0, 0, 0, 0, 0, 0], [1, 0, 0, 0, 0, 0, 0, 0, 0, 0, 0, 0, 0, 0, 0], [1, 0, 0, 0, 0, 0, 0, 0, 0, 0, 0, 0, 0, 0, 0], [1, 0, 0, 0, 0, 0, 0, 0, 0, 0, 0, 0, 0, 0, 0]], [[0, 1, 0, 0, 0, 0, 0, 0, 0, 0, 0, 0, 0, 0, 0], [0, 1, 0, 0, 0, 0, 0, 0, 0, 0, 0, 0, 0, 0, 0], [0, 1, 0, 0, 0, 0, 0, 0, 0, 0, 0, 0, 0, 0, 0], [0, 1, 0, 0, 0, 0, 0, 0, 0, 0, 0, 0, 0, 0, 0]], [[0, 0, 1, 0, 0, 0, 0, 0, 0, 0, 0, 0, 0, 0, 0], [0, 0, 1, 0, 0, 0, 0, 0, 0, 0, 0, 0, 0, 0, 0], [0, 0, 1, 0, 0, 0, 0, 0, 0, 0, 0, 0, 0, 0, 0], [0, 0, 1, 0, 0, 0, 0, 0, 0, 0, 0, 0, 0, 0, 0]]], prehc: 0, lambdahc: 0, rcut: 6, dcut: 0.01, rcut_in: 0, dcut_in: 0, inner_cutoff_type: distance}
functions:
  0:
    - {mu0: 0, rank: 1, ndensity: 1, num_ms_combs: 1, mus: [0], ns: [1], ls: [0], ms_combs: [0], ctildes: [48.367664644206855]}
    - {mu0: 0, rank: 1, ndensity: 1, num_ms_combs: 1, mus: [0], ns: [2], ls: [0], ms_combs: [0], ctildes: [-48.698644778472925]}
    - {mu0: 0, rank: 1, ndensity: 1, num_ms_combs: 1, mus: [0], ns: [3], ls: [0], ms_combs: [0], ctildes: [24.270847784901328]}
    - {mu0: 0, rank: 1, ndensity: 1, num_ms_combs: 1, mus: [0], ns: [4], ls: [0], ms_combs: [0], ctildes: [7.9571233220106317]}
    - {mu0: 0, rank: 1, ndensity: 1, num_ms_combs: 1, mus: [0], ns: [5], ls: [0], ms_combs: [0], ctildes: [-39.408327634071966]}
    - {mu0: 0, rank: 1, ndensity: 1, num_ms_combs: 1, mus: [0], ns: [6], ls: [0], ms_combs: [0], ctildes: [59.839440678760319]}
    - {mu0: 0, rank: 1, ndensity: 1, num_ms_combs: 1, mus: [0], ns: [7], ls: [0], ms_combs: [0], ctildes: [-65.305807342441227]}
    - {mu0: 0, rank: 1, ndensity: 1, num_ms_combs: 1, mus: [0], ns: [8], ls: [0], ms_combs: [0], ctildes: [57.771156826925868]}
    - {mu0: 0, rank: 1, ndensity: 1, num_ms_combs: 1, mus: [0], ns: [9], ls: [0], ms_combs: [0], ctildes: [-43.155000836072439]}
    - {mu0: 0, rank: 1, ndensity: 1, num_ms_combs: 1, mus: [0], ns: [10], ls: [0], ms_combs: [0], ctildes: [27.483788290933045]}
    - {mu0: 0, rank: 1, ndensity: 1, num_ms_combs: 1, mus: [0], ns: [11], ls: [0], ms_combs: [0], ctildes: [-14.882531150404905]}
    - {mu0: 0, rank: 1, ndensity: 1, num_ms_combs: 1, mus: [0], ns: [12], ls: [0], ms_combs: [0], ctildes: [6.7058845545684589]}
    - {mu0: 0, rank: 1, ndensity: 1, num_ms_combs: 1, mus: [0], ns: [13], ls: [0], ms_combs: [0], ctildes: [-2.4247760472647344]}
    - {mu0: 0, rank: 1, ndensity: 1, num_ms_combs: 1, mus: [0], ns: [14], ls: [0], ms_combs: [0], ctildes: [0.64145180717609973]}
    - {mu0: 0, rank: 1, ndensity: 1, num_ms_combs: 1, mus: [0], ns: [15], ls: [0], ms_combs: [0], ctildes: [-0.10370200774837121]}
    - {mu0: 0, rank: 1, ndensity: 1, num_ms_combs: 1, mus: [1], ns: [1], ls: [0], ms_combs: [0], ctildes: [4.2778923676560456]}
    - {mu0: 0, rank: 1, ndensity: 1, num_ms_combs: 1, mus: [1], ns: [2], ls: [0], ms_combs: [0], ctildes: [-4.270567291255901]}
    - {mu0: 0, rank: 1, ndensity: 1, num_ms_combs: 1, mus: [1], ns: [3], ls: [0], ms_combs: [0], ctildes: [-0.16589601912890534]}
    - {mu0: 0, rank: 1, ndensity: 1, num_ms_combs: 1, mus: [1], ns: [4], ls: [0], ms_combs: [0], ctildes: [2.7491661965376184]}
    - {mu0: 0, rank: 1, ndensity: 1, num_ms_combs: 1, mus: [1], ns: [5], ls: [0], ms_combs: [0], ctildes: [-4.1592813390126659]}
    - {mu0: 0, rank: 1, ndensity: 1, num_ms_combs: 1, mus: [1], ns: [6], ls: [0], ms_combs: [0], ctildes: [4.557772119905021]}
    - {mu0: 0, rank: 1, ndensity: 1, num_ms_combs: 1, mus: [1], ns: [7], ls: [0], ms_combs: [0], ctildes: [-4.2765580074356189]}
    - {mu0: 0, rank: 1, ndensity: 1, num_ms_combs: 1, mus: [1], ns: [8], ls: [0], ms_combs: [0], ctildes: [3.5092971493424794]}
    - {mu0: 0, rank: 1, ndensity: 1, num_ms_combs: 1, mus: [1], ns: [9], ls: [0], ms_combs: [0], ctildes: [-2.5595509660550597]}
    - {mu0: 0, rank: 1, ndensity: 1, num_ms_combs: 1, mus: [1], ns: [10], ls: [0], ms_combs: [0], ctildes: [1.6407288858822555]}
    - {mu0: 0, rank: 1, ndensity: 1, num_ms_combs: 1, mus: [1], ns: [11], ls: [0], ms_combs: [0], ctildes: [-0.92315886978270278]}
    - {mu0: 0, rank: 1, ndensity: 1, num_ms_combs: 1, mus: [1], ns: [12], ls: [0], ms_combs: [0], ctildes: [0.44207686598291651]}
    - {mu0: 0, rank: 1, ndensity: 1, num_ms_combs: 1, mus: [1], ns: [13], ls: [0], ms_combs: [0], ctildes: [-0.17650596024844684]}
    - {mu0: 0, rank: 1, ndensity: 1, num_ms_combs: 1, mus: [1], ns: [14], ls: [0], ms_combs: [0], ctildes: [0.052943849527570939]}
    - {mu0: 0, rank: 1, ndensity: 1, num_ms_combs: 1, mus: [1], ns: [15], ls: [0], ms_combs: [0], ctildes: [-0.010848456337835613]}
    - {mu0: 0, rank: 2, ndensity: 1, num_ms_combs: 1, mus: [0, 0], ns: [1, 1], ls: [0, 0], ms_combs: [0, 0], ctildes: [-2.9070035526162274]}
    - {mu0: 0, rank: 2, ndensity: 1, num_ms_combs: 2, mus: [0, 0], ns: [1, 1], ls: [1, 1], ms_combs: [0, 0, 1, -1], ctildes: [-0.64423803226178655, 1.2884760645235729]}
    - {mu0: 0, rank: 2, ndensity: 1, num_ms_combs: 3, mus: [0, 0], ns: [1, 1], ls: [2, 2], ms_combs: [0, 0, 1, -1, 2, -2], ctildes: [1.2423425815939344, -2.4846851631878688, 2.4846851631878697]}
    - {mu0: 0, rank: 2, ndensity: 1, num_ms_combs: 4, mus: [0, 0], ns: [1, 1], ls: [3, 3], ms_combs: [0, 0, 1, -1, 2, -2, 3, -3], ctildes: [0.5252840753943141, -1.0505681507886282, 1.0505681507886282, -1.0505681507886282]}
    - {mu0: 0, rank: 2, ndensity: 1, num_ms_combs: 1, mus: [0, 0], ns: [1, 2], ls: [0, 0], ms_combs: [0, 0], ctildes: [2.9611925287584189]}
    - {mu0: 0, rank: 2, ndensity: 1, num_ms_combs: 2, mus: [0, 0], ns: [1, 2], ls: [1, 1], ms_combs: [0, 0, 1, -1], ctildes: [-0.36534219041223481, 0.73068438082446951]}
    - {mu0: 0, rank: 2, ndensity: 1, num_ms_combs: 3, mus: [0, 0], ns: [1, 2], ls: [2, 2], ms_combs: [0, 0, 1, -1, 2, -2], ctildes: [-1.9618826947932362, 3.9237653895864728, -3.9237653895864737]}
    - {mu0: 0, rank: 2, ndensity: 1, num_ms_combs: 4, mus: [0, 0], ns: [1, 2], ls: [3, 3], ms_combs: [0, 0, 1, -1, 2, -2, 3, -3], ctildes: [-0.54019178899243414, 1.0803835779848683, -1.0803835779848681, 1.0803835779848681]}
    - {mu0: 0, rank: 2, ndensity: 1, num_ms_combs: 1, mus: [0, 0], ns: [1, 3], ls: [0, 0], ms_combs: [0, 0], ctildes: [-0.54596973997231468]}
    - {mu0: 0, rank: 2, ndensity: 1, num_ms_combs: 2, mus: [0, 0], ns: [1, 3], ls: [1, 1], ms_combs: [0, 0, 1, -1], ctildes: [0.35403936181696494, -0.70807872363392965]}
    - {mu0: 0, rank: 2, ndensity: 1, num_ms_combs: 3, mus: [0, 0], ns: [1, 3], ls: [2, 2], ms_combs: [0, 0, 1, -1, 2, -2], ctildes: [0.44963429194601501, -0.89926858389203013, 0.89926858389203035]}
    - {mu0: 0, rank: 2, ndensity: 1, num_ms_combs: 4, mus: [0, 0], ns: [1, 3], ls: [3, 3], ms_combs: [0, 0, 1, -1, 2, -2, 3, -3], ctildes: [0.17893758814773944, -0.35787517629547888, 0.35787517629547883, -0.35787517629547883]}
    - {mu0: 0, rank: 2, ndensity: 1, num_ms_combs: 1, mus: [0, 0], ns: [2, 2], ls: [0, 0], ms_combs: [0, 0], ctildes: [-0.25169739894046883]}
    - {mu0: 0, rank: 2, ndensity: 1, num_ms_combs: 2, mus: [0, 0], ns: [2, 2], ls: [1, 1], ms_combs: [0, 0, 1, -1], ctildes: [0.16959381606982599, -0.33918763213965192]}
    - {mu0: 0, rank: 2, ndensity: 1, num_ms_combs: 3, mus: [0, 0], ns: [2, 2], ls: [2, 2], ms_combs: [0, 0, 1, -1, 2, -2], ctildes: [0.54022698048871898, -1.0804539609774382, 1.0804539609774384]}
    - {mu0: 0, rank: 2, ndensity: 1, num_ms_combs: 4, mus: [0, 0], ns: [2, 2], ls: [3, 3], ms_combs: [0, 0, 1, -1, 2, -2, 3, -3], ctildes: [0.1486037731633085, -0.297207546326617, 0.297207546326617, -0.297207546326617]}
    - {mu0: 0, rank: 2, ndensity: 1, num_ms_combs: 1, mus: [0, 0], ns: [2, 3], ls: [0, 0], ms_combs: [0, 0], ctildes: [0.44541918218656823]}
    - {mu0: 0, rank: 2, ndensity: 1, num_ms_combs: 2, mus: [0, 0], ns: [2, 3], ls: [1, 1], ms_combs: [0, 0, 1, -1], ctildes: [-0.18772047500444231, 0.37544095000888456]}
    - {mu0: 0, rank: 2, ndensity: 1, num_ms_combs: 3, mus: [0, 0], ns: [2, 3], ls: [2, 2], ms_combs: [0, 0, 1, -1, 2, -2], ctildes: [-0.19832214327721959, 0.39664428655443917, -0.39664428655443928]}
    - {mu0: 0, rank: 2, ndensity: 1, num_ms_combs: 4, mus: [0, 0], ns: [2, 3], ls: [3, 3], ms_combs: [0, 0, 1, -1, 2, -2, 3, -3], ctildes: [-0.10593865018613131, 0.21187730037226263, -0.2118773003722626, 0.2118773003722626]}
    - {mu0: 0, rank: 2, ndensity: 1, num_ms_combs: 1, mus: [0, 0], ns: [3, 3], ls: [0, 0], ms_combs: [0, 0], ctildes: [-0.025632927659879824]}
    - {mu0: 0, rank: 2, ndensity: 1, num_ms_combs: 2, mus: [0, 0], ns: [3, 3], ls: [1, 1], ms_combs: [0, 0, 1, -1], ctildes: [0.085921708018785792, -0.17184341603757156]}
    - {mu0: 0, rank: 2, ndensity: 1, num_ms_combs: 3, mus: [0, 0], ns: [3, 3], ls: [2, 2], ms_combs: [0, 0, 1, -1, 2, -2], ctildes: [0.030442070827290339, -0.060884141654580684, 0.060884141654580698]}
    - {mu0: 0, rank: 2, ndensity: 1, num_ms_combs: 4, mus: [0, 0], ns: [3, 3], ls: [3, 3], ms_combs: [0, 0, 1, -1, 2, -2, 3, -3], ctildes: [0.022641796647527225, -0.04528359329505445, 0.045283593295054443, -0.045283593295054443]}
    - {mu0: 0, rank: 2, ndensity: 1, num_ms_combs: 1, mus: [0, 1], ns: [1, 1], ls: [0, 0], ms_combs: [0, 0], ctildes: [-1.2190940948841755]}
    - {mu0: 0, rank: 2, ndensity: 1, num_ms_combs: 2, mus: [0, 1], ns: [1, 1], ls: [1, 1], ms_combs: [0, 0, 1, -1], ctildes: [-2.4151274039635111, 4.8302548079270213]}
    - {mu0: 0, rank: 2, ndensity: 1, num_ms_combs: 3, mus: [0, 1], ns: [1, 1], ls: [2, 2], ms_combs: [0, 0, 1, -1, 2, -2], ctildes: [-1.3352417253998237, 2.6704834507996478, -2.6704834507996482]}
    - {mu0: 0, rank: 2, ndensity: 1, num_ms_combs: 4, mus: [0, 1], ns: [1, 1], ls: [3, 3], ms_combs: [0, 0, 1, -1, 2, -2, 3, -3], ctildes: [0.095327423431171163, -0.19065484686234233, 0.1906548468623423, -0.1906548468623423]}
    - {mu0: 0, rank: 2, ndensity: 1, num_ms_combs: 1, mus: [0, 1], ns: [1, 2], ls: [0, 0], ms_combs: [0, 0], ctildes: [-0.25205126438116215]}
    - {mu0: 0, rank: 2, ndensity: 1, num_ms_combs: 2, mus: [0, 1], ns: [1, 2], ls: [1, 1], ms_combs: [0, 0, 1, -1], ctildes: [-0.37350885729080135, 0.7470177145816026]}
    - {mu0: 0, rank: 2, ndensity: 1, num_ms_combs: 3, mus: [0, 1], ns: [1, 2], ls: [2, 2], ms_combs: [0, 0, 1, -1, 2, -2], ctildes: [-0.52806937621703698, 1.0561387524340742, -1.0561387524340744]}
    - {mu0: 0, rank: 2, ndensity: 1, num_ms_combs: 4, mus: [0, 1], ns: [1, 2], ls: [3, 3], ms_combs: [0, 0, 1, -1, 2, -2, 3, -3], ctildes: [-0.23233309222951007, 0.46466618445902014, -0.46466618445902008, 0.46466618445902008]}
    - {mu0: 0, rank: 2, ndensity: 1, num_ms_combs: 1, mus: [0, 1], ns: [1, 3], ls: [0, 0], ms_combs: [0, 0], ctildes: [0.56966663056941469]}
    - {mu0: 0, rank: 2, ndensity: 1, num_ms_combs: 2, mus: [0, 1], ns: [1, 3], ls: [1, 1], ms_combs: [0, 0, 1, -1], ctildes: [0.54250074630748413, -1.085001492614968]}
    - {mu0: 0, rank: 2, ndensity: 1, num_ms_combs: 3, mus: [0, 1], ns: [1, 3], ls: [2, 2], ms_combs: [0, 0, 1, -1, 2, -2], ctildes: [0.37196826435182684, -0.74393652870365379, 0.7439365287036539]}
    - {mu0: 0, rank: 2, ndensity: 1, num_ms_combs: 4, mus: [0, 1], ns: [1, 3], ls: [3, 3], ms_combs: [0, 0, 1, -1, 2, -2, 3, -3], ctildes: [0.11230929370159863, -0.22461858740319726, 0.22461858740319723, -0.22461858740319723]}
    - {mu0: 0, rank: 2, ndensity: 1, num_ms_combs: 1, mus: [0, 1], ns: [2, 1], ls: [0, 0], ms_combs: [0, 0], ctildes: [0.013195743266436367]}
    - {mu0: 0, rank: 2, ndensity: 1, num_ms_combs: 2, mus: [0, 1], ns: [2, 1], ls: [1, 1], ms_combs: [0, 0, 1, -1], ctildes: [-0.24648601076516705, 0.49297202153033398]}
    - {mu0: 0, rank: 2, ndensity: 1, num_ms_combs: 3, mus: [0, 1], ns: [2, 1], ls: [2, 2], ms_combs: [0, 0, 1, -1, 2, -2], ctildes: [-0.19169241105166399, 0.38338482210332803, -0.38338482210332808]}
    - {mu0: 0, rank: 2, ndensity: 1, num_ms_combs: 4, mus: [0, 1], ns: [2, 1], ls: [3, 3], ms_combs: [0, 0, 1, -1, 2, -2, 3, -3], ctildes: [-0.13160090167147134, 0.26320180334294269, -0.26320180334294263, 0.26320180334294263]}
    - {mu0: 0, rank: 2, ndensity: 1, num_ms_combs: 1, mus: [0, 1], ns: [2, 2], ls: [0, 0], ms_combs: [0, 0], ctildes: [1.9485174186725003]}
    - {mu0: 0, rank: 2, ndensity: 1, num_ms_combs: 2, mus: [0, 1], ns: [2, 2], ls: [1, 1], ms_combs: [0, 0, 1, -1], ctildes: [0.90620623074175743, -1.8124124614835146]}
    - {mu0: 0, rank: 2, ndensity: 1, num_ms_combs: 3, mus: [0, 1], ns: [2, 2], ls: [2, 2], ms_combs: [0, 0, 1, -1, 2, -2], ctildes: [0.54067212002322795, -1.0813442400464559, 1.0813442400464564]}
    - {mu0: 0, rank: 2, ndensity: 1, num_ms_combs: 4, mus: [0, 1], ns: [2, 2], ls: [3, 3], ms_combs: [0, 0, 1, -1, 2, -2, 3, -3], ctildes: [0.10050240824258594, -0.20100481648517188, 0.20100481648517182, -0.20100481648517182]}
    - {mu0: 0, rank: 2, ndensity: 1, num_ms_combs: 1, mus: [0, 1], ns: [2, 3], ls: [0, 0], ms_combs: [0, 0], ctildes: [-0.46299918765844866]}
    - {mu0: 0, rank: 2, ndensity: 1, num_ms_combs: 2, mus: [0, 1], ns: [2, 3], ls: [1, 1], ms_combs: [0, 0, 1, -1], ctildes: [-0.32556230523944346, 0.65112461047888681]}
    - {mu0: 0, rank: 2, ndensity: 1, num_ms_combs: 3, mus: [0, 1], ns: [2, 3], ls: [2, 2], ms_combs: [0, 0, 1, -1, 2, -2], ctildes: [-0.19323041341961539, 0.38646082683923083, -0.38646082683923089]}
    - {mu0: 0, rank: 2, ndensity: 1, num_ms_combs: 4, mus: [0, 1], ns: [2, 3], ls: [3, 3], ms_combs: [0, 0, 1, -1, 2, -2, 3, -3], ctildes: [-0.06470886234110787, 0.12941772468221574, -0.12941772468221574, 0.12941772468221574]}
    - {mu0: 0, rank: 2, ndensity: 1, num_ms_combs: 1, mus: [0, 1], ns: [3, 1], ls: [0, 0], ms_combs: [0, 0], ctildes: [0.20367527128150839]}
    - {mu0: 0, rank: 2, ndensity: 1, num_ms_combs: 2, mus: [0, 1], ns: [3, 1], ls: [1, 1], ms_combs: [0, 0, 1, -1], ctildes: [0.080237586692176982, -0.16047517338435394]}
    - {mu0: 0, rank: 2, ndensity: 1, num_ms_combs: 3, mus: [0, 1], ns: [3, 1], ls: [2, 2], ms_combs: [0, 0, 1, -1, 2, -2], ctildes: [0.073821601466947967, -0.14764320293389596, 0.14764320293389599]}
    - {mu0: 0, rank: 2, ndensity: 1, num_ms_combs: 4, mus: [0, 1], ns: [3, 1], ls: [3, 3], ms_combs: [0, 0, 1, -1, 2, -2, 3, -3], ctildes: [0.007052594936650447, -0.014105189873300894, 0.014105189873300892, -0.014105189873300892]}
    - {mu0: 0, rank: 2, ndensity: 1, num_ms_combs: 1, mus: [0, 1], ns: [3, 2], ls: [0, 0], ms_combs: [0, 0], ctildes: [-0.24781011894576074]}
    - {mu0: 0, rank: 2, ndensity: 1, num_ms_combs: 2, mus: [0, 1], ns: [3, 2], ls: [1, 1], ms_combs: [0, 0, 1, -1], ctildes: [-0.072307744203237045, 0.14461548840647406]}
    - {mu0: 0, rank: 2, ndensity: 1, num_ms_combs: 3, mus: [0, 1], ns: [3, 2], ls: [2, 2], ms_combs: [0, 0, 1, -1, 2, -2], ctildes: [-0.069467201649968252, 0.13893440329993653, -0.13893440329993656]}
    - {mu0: 0, rank: 2, ndensity: 1, num_ms_combs: 4, mus: [0, 1], ns: [3, 2], ls: [3, 3], ms_combs: [0, 0, 1, -1, 2, -2, 3, -3], ctildes: [-0.019758969166873776, 0.039517938333747553, -0.039517938333747546, 0.039517938333747546]}
    - {mu0: 0, rank: 2, ndensity: 1, num_ms_combs: 1, mus: [0, 1], ns: [3, 3], ls: [0, 0], ms_combs: [0, 0], ctildes: [0.23753778240025872]}
    - {mu0: 0, rank: 2, ndensity: 1, num_ms_combs: 2, mus: [0, 1], ns: [3, 3], ls: [1, 1], ms_combs: [0, 0, 1, -1], ctildes: [0.12451505375440948, -0.2490301075088189]}
    - {mu0: 0, rank: 2, ndensity: 1, num_ms_combs: 3, mus: [0, 1], ns: [3, 3], ls: [2, 2], ms_combs: [0, 0, 1, -1, 2, -2], ctildes: [0.099590987348635251, -0.19918197469727053, 0.19918197469727059]}
    - {mu0: 0, rank: 2, ndensity: 1, num_ms_combs: 4, mus: [0, 1], ns: [3, 3], ls: [3, 3], ms_combs: [0, 0, 1, -1, 2, -2, 3, -3], ctildes: [0.038711144048466074, -0.077422288096932149, 0.077422288096932135, -0.077422288096932135]}
    - {mu0: 0, rank: 2, ndensity: 1, num_ms_combs: 1, mus: [1, 1], ns: [1, 1], ls: [0, 0], ms_combs: [0, 0], ctildes: [3.1781535482248451]}
    - {mu0: 0, rank: 2, ndensity: 1, num_ms_combs: 2, mus: [1, 1], ns: [1, 1], ls: [1, 1], ms_combs: [0, 0, 1, -1], ctildes: [0.40335290633758286, -0.80670581267516561]}
    - {mu0: 0, rank: 2, ndensity: 1, num_ms_combs: 3, mus: [1, 1], ns: [1, 1], ls: [2, 2], ms_combs: [0, 0, 1, -1, 2, -2], ctildes: [-0.31402880218962209, 0.62805760437924429, -0.62805760437924452]}
    - {mu0: 0, rank: 2, ndensity: 1, num_ms_combs: 4, mus: [1, 1], ns: [1, 1], ls: [3, 3], ms_combs: [0, 0, 1, -1, 2, -2, 3, -3], ctildes: [0.0084544924156510909, -0.016908984831302182, 0.016908984831302178, -0.016908984831302178]}
    - {mu0: 0, rank: 2, ndensity: 1, num_ms_combs: 1, mus: [1, 1], ns: [1, 2], ls: [0, 0], ms_combs: [0, 0], ctildes: [-2.5019189930881192]}
    - {mu0: 0, rank: 2, ndensity: 1, num_ms_combs: 2, mus: [1, 1], ns: [1, 2], ls: [1, 1], ms_combs: [0, 0, 1, -1], ctildes: [-1.0206164024489988, 2.0412328048979971]}
    - {mu0: 0, rank: 2, ndensity: 1, num_ms_combs: 3, mus: [1, 1], ns: [1, 2], ls: [2, 2], ms_combs: [0, 0, 1, -1, 2, -2], ctildes: [-0.1284948911398536, 0.25698978227970726, -0.25698978227970731]}
    - {mu0: 0, rank: 2, ndensity: 1, num_ms_combs: 4, mus: [1, 1], ns: [1, 2], ls: [3, 3], ms_combs: [0, 0, 1, -1, 2, -2, 3, -3], ctildes: [-0.10763342940392284, 0.21526685880784568, -0.21526685880784566, 0.21526685880784566]}
    - {mu0: 0, rank: 2, ndensity: 1, num_ms_combs: 1, mus: [1, 1], ns: [1, 3], ls: [0, 0], ms_combs: [0, 0], ctildes: [0.49279025249051689]}
    - {mu0: 0, rank: 2, ndensity: 1, num_ms_combs: 2, mus: [1, 1], ns: [1, 3], ls: [1, 1], ms_combs: [0, 0, 1, -1], ctildes: [0.27897299155111355, -0.55794598310222698]}
    - {mu0: 0, rank: 2, ndensity: 1, num_ms_combs: 3, mus: [1, 1], ns: [1, 3], ls: [2, 2], ms_combs: [0, 0, 1, -1, 2, -2], ctildes: [0.12092397943004825, -0.24184795886009652, 0.24184795886009658]}
    - {mu0: 0, rank: 2, ndensity: 1, num_ms_combs: 4, mus: [1, 1], ns: [1, 3], ls: [3, 3], ms_combs: [0, 0, 1, -1, 2, -2, 3, -3], ctildes: [0.055456862026879175, -0.11091372405375835, 0.11091372405375834, -0.11091372405375834]}
    - {mu0: 0, rank: 2, ndensity: 1, num_ms_combs: 1, mus: [1, 1], ns: [2, 2], ls: [0, 0], ms_combs: [0, 0], ctildes: [1.441906439321843]}
    - {mu0: 0, rank: 2, ndensity: 1, num_ms_combs: 2, mus: [1, 1], ns: [2, 2], ls: [1, 1], ms_combs: [0, 0, 1, -1], ctildes: [0.73159860510835295, -1.4631972102167057]}
    - {mu0: 0, rank: 2, ndensity: 1, num_ms_combs: 3, mus: [1, 1], ns: [2, 2], ls: [2, 2], ms_combs: [0, 0, 1, -1, 2, -2], ctildes: [0.19828225703232447, -0.39656451406464899, 0.3965645140646491]}
    - {mu0: 0, rank: 2, ndensity: 1, num_ms_combs: 4, mus: [1, 1], ns: [2, 2], ls: [3, 3], ms_combs: [0, 0, 1, -1, 2, -2, 3, -3], ctildes: [0.046438636468729387, -0.092877272937458774, 0.09287727293745876, -0.09287727293745876]}
    - {mu0: 0, rank: 2, ndensity: 1, num_ms_combs: 1, mus: [1, 1], ns: [2, 3], ls: [0, 0], ms_combs: [0, 0], ctildes: [-0.45766619214066245]}
    - {mu0: 0, rank: 2, ndensity: 1, num_ms_combs: 2, mus: [1, 1], ns: [2, 3], ls: [1, 1], ms_combs: [0, 0, 1, -1], ctildes: [-0.24707090371042398, 0.49414180742084785]}
    - {mu0: 0, rank: 2, ndensity: 1, num_ms_combs: 3, mus: [1, 1], ns: [2, 3], ls: [2, 2], ms_combs: [0, 0, 1, -1, 2, -2], ctildes: [-0.11676016359138652, 0.23352032718277307, -0.23352032718277316]}
    - {mu0: 0, rank: 2, ndensity: 1, num_ms_combs: 4, mus: [1, 1], ns: [2, 3], ls: [3, 3], ms_combs: [0, 0, 1, -1, 2, -2, 3, -3], ctildes: [-0.047063885191195975, 0.094127770382391951, -0.094127770382391937, 0.094127770382391937]}
    - {mu0: 0, rank: 2, ndensity: 1, num_ms_combs: 1, mus: [1, 1], ns: [3, 3], ls: [0, 0], ms_combs: [0, 0], ctildes: [0.10362351671127501]}
    - {mu0: 0, rank: 2, ndensity: 1, num_ms_combs: 2, mus: [1, 1], ns: [3, 3], ls: [1, 1], ms_combs: [0, 0, 1, -1], ctildes: [0.038582594225803221, -0.077165188451606428]}
    - {mu0: 0, rank: 2, ndensity: 1, num_ms_combs: 3, mus: [1, 1], ns: [3, 3], ls: [2, 2], ms_combs: [0, 0, 1, -1, 2, -2], ctildes: [0.042498590990780266, -0.084997181981560546, 0.08499718198156056]}
    - {mu0: 0, rank: 2, ndensity: 1, num_ms_combs: 4, mus: [1, 1], ns: [3, 3], ls: [3, 3], ms_combs: [0, 0, 1, -1, 2, -2, 3, -3], ctildes: [0.016118665527182559, -0.032237331054365118, 0.032237331054365111, -0.032237331054365111]}
    - {mu0: 0, rank: 3, ndensity: 1, num_ms_combs: 1, mus: [0, 0, 0], ns: [1, 1, 1], ls: [0, 0, 0], ms_combs: [0, 0, 0], ctildes: [0.43672373903687933]}
    - {mu0: 0, rank: 3, ndensity: 1, num_ms_combs: 2, mus: [0, 0, 0], ns: [1, 1, 1], ls: [0, 1, 1], ms_combs: [0, 0, 0, 0, 1, -1], ctildes: [1.0711337915099515, -2.1422675830199025]}
    - {mu0: 0, rank: 3, ndensity: 1, num_ms_combs: 3, mus: [0, 0, 0], ns: [1, 1, 1], ls: [0, 2, 2], ms_combs: [0, 0, 0, 0, 1, -1, 0, 2, -2], ctildes: [-0.068707116956701161, 0.13741423391340232, -0.13741423391340235]}
    - {mu0: 0, rank: 3, ndensity: 1, num_ms_combs: 4, mus: [0, 0, 0], ns: [1, 1, 1], ls: [1, 1, 2], ms_combs: [-1, 1, 0, 0, 0, 0, 0, 1, -1, 1, 1, -2], ctildes: [0.16941274553032462, 0.16941274553032459, -0.58686296541651894, 0.41497478247326697]}
    - {mu0: 0, rank: 3, ndensity: 1, num_ms_combs: 5, mus: [0, 0, 0], ns: [1, 1, 1], ls: [2, 2, 2], ms_combs: [-2, 0, 2, -2, 1, 1, -1, -1, 2, -1, 0, 1, 0, 0, 0], ctildes: [0.10944807763990336, -0.089363981182093377, -0.044681990591046689, 0.054724038819951665, -0.018241346273317218]}
    - {mu0: 0, rank: 3, ndensity: 1, num_ms_combs: 1, mus: [0, 0, 0], ns: [1, 1, 2], ls: [0, 0, 0], ms_combs: [0, 0, 0], ctildes: [0.15709731357040979]}
    - {mu0: 0, rank: 3, ndensity: 1, num_ms_combs: 2, mus: [0, 0, 0], ns: [1, 1, 2], ls: [0, 1, 1], ms_combs: [0, 0, 0, 0, 1, -1], ctildes: [-0.071957636003223455, 0.14391527200644688]}
    - {mu0: 0, rank: 3, ndensity: 1, num_ms_combs: 3, mus: [0, 0, 0], ns: [1, 1, 2], ls: [0, 2, 2], ms_combs: [0, 0, 0, 0, 1, -1, 0, 2, -2], ctildes: [0.23671307279812945, -0.47342614559625895, 0.47342614559625906]}
    - {mu0: 0, rank: 3, ndensity: 1, num_ms_combs: 2, mus: [0, 0, 0], ns: [1, 1, 2], ls: [1, 1, 0], ms_combs: [0, 0, 0, 1, -1, 0], ctildes: [0.095402564262511924, -0.19080512852502382]}
    - {mu0: 0, rank: 3, ndensity: 1, num_ms_combs: 4, mus: [0, 0, 0], ns: [1, 1, 2], ls: [1, 1, 2], ms_combs: [-1, 1, 0, 0, 0, 0, 0, 1, -1, 1, 1, -2], ctildes: [-0.05239695275098008, -0.052396952750980073, 0.18150836865296674, -0.12834579831662057]}
    - {mu0: 0, rank: 3, ndensity: 1, num_ms_combs: 5, mus: [0, 0, 0], ns: [1, 1, 2], ls: [1, 2, 1], ms_combs: [0, 0, 0, 0, 1, -1, 1, -2, 1, 1, -1, 0, 1, 0, -1], ctildes: [-0.3775817519722236, 0.65399077842676145, -0.92488262851806369, 0.65399077842676145, -0.37758175197222354]}
    - {mu0: 0, rank: 3, ndensity: 1, num_ms_combs: 3, mus: [0, 0, 0], ns: [1, 1, 2], ls: [2, 2, 0], ms_combs: [0, 0, 0, 1, -1, 0, 2, -2, 0], ctildes: [0.099413787154545435, -0.1988275743090909, 0.19882757430909095]}
    - {mu0: 0, rank: 3, ndensity: 1, num_ms_combs: 8, mus: [0, 0, 0], ns: [1, 1, 2], ls: [2, 2, 2], ms_combs: [-2, 1, 1, -2, 2, 0, -1, 1, 0, -1, 2, -1, 0, 0, 0, 0, 1, -1, 0, 2, -2, 1, 1, -2], ctildes: [-0.086317536797662506, 0.070477973669394595, 0.035238986834697297, -0.086317536797662506, -0.035238986834697297, 0.070477973669394595, 0.14095594733878927, -0.086317536797662506]}
    - {mu0: 0, rank: 3, ndensity: 1, num_ms_combs: 1, mus: [0, 0, 0], ns: [1, 2, 2], ls: [0, 0, 0], ms_combs: [0, 0, 0], ctildes: [-0.39497548231581364]}
    - {mu0: 0, rank: 3, ndensity: 1, num_ms_combs: 2, mus: [0, 0, 0], ns: [1, 2, 2], ls: [0, 1, 1], ms_combs: [0, 0, 0, 0, 1, -1], ctildes: [-0.1148103484993851, 0.22962069699877014]}
    - {mu0: 0, rank: 3, ndensity: 1, num_ms_combs: 3, mus: [0, 0, 0], ns: [1, 2, 2], ls: [0, 2, 2], ms_combs: [0, 0, 0, 0, 1, -1, 0, 2, -2], ctildes: [-0.032989421267849595, 0.065978842535699189, -0.065978842535699203]}
    - {mu0: 0, rank: 3, ndensity: 1, num_ms_combs: 2, mus: [0, 0, 0], ns: [1, 2, 2], ls: [1, 0, 1], ms_combs: [0, 0, 0, 1, 0, -1], ctildes: [-0.15186320560613367, 0.30372641121226729]}
    - {mu0: 0, rank: 3, ndensity: 1, num_ms_combs: 5, mus: [0, 0, 0], ns: [1, 2, 2], ls: [1, 1, 2], ms_combs: [0, 0, 0, 0, 1, -1, 1, -1, 0, 1, 0, -1, 1, 1, -2], ctildes: [0.21092607804338157, -0.36533468381237516, 0.21092607804338159, -0.36533468381237516, 0.51666126465274742]}
    - {mu0: 0, rank: 3, ndensity: 1, num_ms_combs: 3, mus: [0, 0, 0], ns: [1, 2, 2], ls: [2, 0, 2], ms_combs: [0, 0, 0, 1, 0, -1, 2, 0, -2], ctildes: [0.02413579333167392, -0.048271586663347847, 0.048271586663347854]}
    - {mu0: 0, rank: 3, ndensity: 1, num_ms_combs: 4, mus: [0, 0, 0], ns: [1, 2, 2], ls: [2, 1, 1], ms_combs: [0, -1, 1, 0, 0, 0, 1, -1, 0, 2, -1, -1], ctildes: [0.095653212654102926, 0.09565321265410294, -0.33135244844819312, 0.23430156326048324]}
    - {mu0: 0, rank: 3, ndensity: 1, num_ms_combs: 7, mus: [0, 0, 0], ns: [1, 2, 2], ls: [2, 2, 2], ms_combs: [0, -2, 2, 0, -1, 1, 0, 0, 0, 1, -2, 1, 1, -1, 0, 2, -2, 0, 2, -1, -1], ctildes: [-0.12870228732207892, -0.064351143661039417, 0.064351143661039417, 0.31525493266816568, -0.12870228732207883, -0.25740457464415772, 0.15762746633408284]}
    - {mu0: 0, rank: 3, ndensity: 1, num_ms_combs: 1, mus: [0, 0, 0], ns: [2, 2, 2], ls: [0, 0, 0], ms_combs: [0, 0, 0], ctildes: [0.0062212125778031927]}
    - {mu0: 0, rank: 3, ndensity: 1, num_ms_combs: 2, mus: [0, 0, 0], ns: [2, 2, 2], ls: [0, 1, 1], ms_combs: [0, 0, 0, 0, 1, -1], ctildes: [0.076053934392511124, -0.15210786878502222]}
    - {mu0: 0, rank: 3, ndensity: 1, num_ms_combs: 3, mus: [0, 0, 0], ns: [2, 2, 2], ls: [0, 2, 2], ms_combs: [0, 0, 0, 0, 1, -1, 0, 2, -2], ctildes: [-0.039607363486519075, 0.079214726973038163, -0.079214726973038177]}
    - {mu0: 0, rank: 3, ndensity: 1, num_ms_combs: 4, mus: [0, 0, 0], ns: [2, 2, 2], ls: [1, 1, 2], ms_combs: [-1, 1, 0, 0, 0, 0, 0, 1, -1, 1, 1, -2], ctildes: [-0.066021112086316308, -0.066021112086316294, 0.22870384101139909, -0.16171803686257036]}
    - {mu0: 0, rank: 3, ndensity: 1, num_ms_combs: 5, mus: [0, 0, 0], ns: [2, 2, 2], ls: [2, 2, 2], ms_combs: [-2, 0, 2, -2, 1, 1, -1, -1, 2, -1, 0, 1, 0, 0, 0], ctildes: [0.075588492109596256, -0.061717745364967734, -0.030858872682483867, 0.037794246054798121, -0.012598082018266038]}
    - {mu0: 0, rank: 3, ndensity: 1, num_ms_combs: 1, mus: [0, 0, 1], ns: [1, 1, 1], ls: [0, 0, 0], ms_combs: [0, 0, 0], ctildes: [-1.2070449884594576]}
    - {mu0: 0, rank: 3, ndensity: 1, num_ms_combs: 2, mus: [0, 0, 1], ns: [1, 1, 1], ls: [0, 1, 1], ms_combs: [0, 0, 0, 0, 1, -1], ctildes: [0.5638370517404655, -1.1276741034809308]}
    - {mu0: 0, rank: 3, ndensity: 1, num_ms_combs: 3, mus: [0, 0, 1], ns: [1, 1, 1], ls: [0, 2, 2], ms_combs: [0, 0, 0, 0, 1, -1, 0, 2, -2], ctildes: [0.47911560053574809, -0.95823120107149629, 0.95823120107149651]}
    - {mu0: 0, rank: 3, ndensity: 1, num_ms_combs: 2, mus: [0, 0, 1], ns: [1, 1, 1], ls: [1, 1, 0], ms_combs: [0, 0, 0, 1, -1, 0], ctildes: [0.62489674500379511, -1.24979349000759]}
    - {mu0: 0, rank: 3, ndensity: 1, num_ms_combs: 4, mus: [0, 0, 1], ns: [1, 1, 1], ls: [1, 1, 2], ms_combs: [-1, 1, 0, 0, 0, 0, 0, 1, -1, 1, 1, -2], ctildes: [0.37210043811857124, 0.37210043811857119, -1.2889937286800088, 0.91145620645656722]}
    - {mu0: 0, rank: 3, ndensity: 1, num_ms_combs: 5, mus: [0, 0, 1], ns: [1, 1, 1], ls: [1, 2, 1], ms_combs: [0, 0, 0, 0, 1, -1, 1, -2, 1, 1, -1, 0, 1, 0, -1], ctildes: [-0.25574545850112512, 0.44296412792894657, -0.62644587736188684, 0.44296412792894657, -0.25574545850112507]}
    - {mu0: 0, rank: 3, ndensity: 1, num_ms_combs: 3, mus: [0, 0, 1], ns: [1, 1, 1], ls: [2, 2, 0], ms_combs: [0, 0, 0, 1, -1, 0, 2, -2, 0], ctildes: [-0.11150737156447144, 0.2230147431289429, -0.22301474312894295]}
    - {mu0: 0, rank: 3, ndensity: 1, num_ms_combs: 8, mus: [0, 0, 1], ns: [1, 1, 1], ls: [2, 2, 2], ms_combs: [-2, 1, 1, -2, 2, 0, -1, 1, 0, -1, 2, -1, 0, 0, 0, 0, 1, -1, 0, 2, -2, 1, 1, -2], ctildes: [-0.29339863740695993, 0.23955898429163636, 0.11977949214581818, -0.29339863740695993, -0.11977949214581818, 0.23955898429163636, 0.47911796858327299, -0.29339863740695993]}
    - {mu0: 0, rank: 3, ndensity: 1, num_ms_combs: 1, mus: [0, 0, 1], ns: [1, 1, 2], ls: [0, 0, 0], ms_combs: [0, 0, 0], ctildes: [0.54429140988424296]}
    - {mu0: 0, rank: 3, ndensity: 1, num_ms_combs: 2, mus: [0, 0, 1], ns: [1, 1, 2], ls: [0, 1, 1], ms_combs: [0, 0, 0, 0, 1, -1], ctildes: [0.012281843196842016, -0.024563686393684028]}
    - {mu0: 0, rank: 3, ndensity: 1, num_ms_combs: 3, mus: [0, 0, 1], ns: [1, 1, 2], ls: [0, 2, 2], ms_combs: [0, 0, 0, 0, 1, -1, 0, 2, -2], ctildes: [0.010427620113654184, -0.020855240227308371, 0.020855240227308374]}
    - {mu0: 0, rank: 3, ndensity: 1, num_ms_combs: 2, mus: [0, 0, 1], ns: [1, 1, 2], ls: [1, 1, 0], ms_combs: [0, 0, 0, 1, -1, 0], ctildes: [0.16977754827878014, -0.33955509655756022]}
    - {mu0: 0, rank: 3, ndensity: 1, num_ms_combs: 4, mus: [0, 0, 1], ns: [1, 1, 2], ls: [1, 1, 2], ms_combs: [-1, 1, 0, 0, 0, 0, 0, 1, -1, 1, 1, -2], ctildes: [-0.2440572737108854, -0.24405727371088534, 0.84543919604799522, -0.59781578860644047]}
    - {mu0: 0, rank: 3, ndensity: 1, num_ms_combs: 5, mus: [0, 0, 1], ns: [1, 1, 2], ls: [1, 2, 1], ms_combs: [0, 0, 0, 0, 1, -1, 1, -2, 1, 1, -1, 0, 1, 0, -1], ctildes: [0.10964296546459866, -0.18990718687720465, 0.26856931927386463, -0.18990718687720465, 0.10964296546459863]}
    - {mu0: 0, rank: 3, ndensity: 1, num_ms_combs: 3, mus: [0, 0, 1], ns: [1, 1, 2], ls: [2, 2, 0], ms_combs: [0, 0, 0, 1, -1, 0, 2, -2, 0], ctildes: [0.10912744345512683, -0.21825488691025369, 0.21825488691025374]}
    - {mu0: 0, rank: 3, ndensity: 1, num_ms_combs: 8, mus: [0, 0, 1], ns: [1, 1, 2], ls: [2, 2, 2], ms_combs: [-2, 1, 1, -2, 2, 0, -1, 1, 0, -1, 2, -1, 0, 0, 0, 0, 1, -1, 0, 2, -2, 1, 1, -2], ctildes: [0.005393188982509429, -0.0044035203645160286, -0.0022017601822580143, 0.005393188982509429, 0.0022017601822580143, -0.0044035203645160286, -0.0088070407290320625, 0.005393188982509429]}
    - {mu0: 0, rank: 3, ndensity: 1, num_ms_combs: 1, mus: [0, 0, 1], ns: [1, 2, 1], ls: [0, 0, 0], ms_combs: [0, 0, 0], ctildes: [0.059280490116040543]}
    - {mu0: 0, rank: 3, ndensity: 1, num_ms_combs: 2, mus: [0, 0, 1], ns: [1, 2, 1], ls: [0, 1, 1], ms_combs: [0, 0, 0, 0, 1, -1], ctildes: [-0.26546409782201214, 0.53092819564402416]}
    - {mu0: 0, rank: 3, ndensity: 1, num_ms_combs: 3, mus: [0, 0, 1], ns: [1, 2, 1], ls: [0, 2, 2], ms_combs: [0, 0, 0, 0, 1, -1, 0, 2, -2], ctildes: [-0.10869056148333242, 0.21738112296666487, -0.21738112296666492]}
    - {mu0: 0, rank: 3, ndensity: 1, num_ms_combs: 2, mus: [0, 0, 1], ns: [1, 2, 1], ls: [1, 0, 1], ms_combs: [0, 0, 0, 1, 0, -1], ctildes: [0.17782582972940453, -0.355651659458809]}
    - {mu0: 0, rank: 3, ndensity: 1, num_ms_combs: 2, mus: [0, 0, 1], ns: [1, 2, 1], ls: [1, 1, 0], ms_combs: [0, 0, 0, 1, -1, 0], ctildes: [0.13714881504806242, -0.27429763009612479]}
    - {mu0: 0, rank: 3, ndensity: 1, num_ms_combs: 5, mus: [0, 0, 1], ns: [1, 2, 1], ls: [1, 1, 2], ms_combs: [0, 0, 0, 0, 1, -1, 1, -1, 0, 1, 0, -1, 1, 1, -2], ctildes: [-0.3438330952448162, 0.59553639028769079, -0.34383309524481626, 0.59553639028769079, -0.84221564003156912]}
    - {mu0: 0, rank: 3, ndensity: 1, num_ms_combs: 5, mus: [0, 0, 1], ns: [1, 2, 1], ls: [1, 2, 1], ms_combs: [0, 0, 0, 0, 1, -1, 1, -2, 1, 1, -1, 0, 1, 0, -1], ctildes: [0.40130490494176246, -0.69508048468573125, 0.98299224838342536, -0.69508048468573125, 0.40130490494176241]}
    - {mu0: 0, rank: 3, ndensity: 1, num_ms_combs: 3, mus: [0, 0, 1], ns: [1, 2, 1], ls: [2, 0, 2], ms_combs: [0, 0, 0, 1, 0, -1, 2, 0, -2], ctildes: [0.11312303538091566, -0.22624607076183134, 0.2262460707618314]}
    - {mu0: 0, rank: 3, ndensity: 1, num_ms_combs: 5, mus: [0, 0, 1], ns: [1, 2, 1], ls: [2, 1, 1], ms_combs: [0, 0, 0, 0, 1, -1, 1, -1, 0, 1, 0, -1, 2, -1, -1], ctildes: [0.25254533928589856, 0.25254533928589856, -0.43742135885789679, -0.43742135885789679, 0.61860721816850617]}
    - {mu0: 0, rank: 3, ndensity: 1, num_ms_combs: 3, mus: [0, 0, 1], ns: [1, 2, 1], ls: [2, 2, 0], ms_combs: [0, 0, 0, 1, -1, 0, 2, -2, 0], ctildes: [0.4855752122768629, -0.97115042455372591, 0.97115042455372613]}
    - {mu0: 0, rank: 3, ndensity: 1, num_ms_combs: 10, mus: [0, 0, 1], ns: [1, 2, 1], ls: [2, 2, 2], ms_combs: [0, 0, 0, 0, 1, -1, 0, 2, -2, 1, -2, 1, 1, -1, 0, 1, 0, -1, 1, 1, -2, 2, -2, 0, 2, -1, -1, 2, 0, -2], ctildes: [0.12165039195658807, -0.12165039195658807, -0.24330078391317631, 0.29798138730321583, -0.12165039195658807, -0.12165039195658807, 0.29798138730321583, -0.24330078391317614, 0.29798138730321583, -0.24330078391317631]}
    - {mu0: 0, rank: 3, ndensity: 1, num_ms_combs: 1, mus: [0, 0, 1], ns: [1, 2, 2], ls: [0, 0, 0], ms_combs: [0, 0, 0], ctildes: [-0.51368054242151928]}
    - {mu0: 0, rank: 3, ndensity: 1, num_ms_combs: 2, mus: [0, 0, 1], ns: [1, 2, 2], ls: [0, 1, 1], ms_combs: [0, 0, 0, 0, 1, -1], ctildes: [-0.11547237831016557, 0.23094475662033112]}
    - {mu0: 0, rank: 3, ndensity: 1, num_ms_combs: 3, mus: [0, 0, 1], ns: [1, 2, 2], ls: [0, 2, 2], ms_combs: [0, 0, 0, 0, 1, -1, 0, 2, -2], ctildes: [0.044448264683499022, -0.088896529366998045, 0.088896529366998073]}
    - {mu0: 0, rank: 3, ndensity: 1, num_ms_combs: 2, mus: [0, 0, 1], ns: [1, 2, 2], ls: [1, 0, 1], ms_combs: [0, 0, 0, 1, 0, -1], ctildes: [-0.14574872625261609, 0.29149745250523212]}
    - {mu0: 0, rank: 3, ndensity: 1, num_ms_combs: 2, mus: [0, 0, 1], ns: [1, 2, 2], ls: [1, 1, 0], ms_combs: [0, 0, 0, 1, -1, 0], ctildes: [-0.19342500245164779, 0.38685000490329546]}
    - {mu0: 0, rank: 3, ndensity: 1, num_ms_combs: 5, mus: [0, 0, 1], ns: [1, 2, 2], ls: [1, 1, 2], ms_combs: [0, 0, 0, 0, 1, -1, 1, -1, 0, 1, 0, -1, 1, 1, -2], ctildes: [0.38995880724202009, -0.67542846700213721, 0.38995880724202014, -0.67542846700213721, 0.95520009844729103]}
    - {mu0: 0, rank: 3, ndensity: 1, num_ms_combs: 5, mus: [0, 0, 1], ns: [1, 2, 2], ls: [1, 2, 1], ms_combs: [0, 0, 0, 0, 1, -1, 1, -2, 1, 1, -1, 0, 1, 0, -1], ctildes: [-0.23504319645266852, 0.40710675822941483, -0.575735898821783, 0.40710675822941483, -0.23504319645266847]}
    - {mu0: 0, rank: 3, ndensity: 1, num_ms_combs: 3, mus: [0, 0, 1], ns: [1, 2, 2], ls: [2, 0, 2], ms_combs: [0, 0, 0, 1, 0, -1, 2, 0, -2], ctildes: [0.022600272289130887, -0.045200544578261781, 0.045200544578261795]}
    - {mu0: 0, rank: 3, ndensity: 1, num_ms_combs: 5, mus: [0, 0, 1], ns: [1, 2, 2], ls: [2, 1, 1], ms_combs: [0, 0, 0, 0, 1, -1, 1, -1, 0, 1, 0, -1, 2, -1, -1], ctildes: [-0.061383827042216364, -0.061383827042216357, 0.10631990720013915, 0.10631990720013915, -0.15035905471268565]}
    - {mu0: 0, rank: 3, ndensity: 1, num_ms_combs: 3, mus: [0, 0, 1], ns: [1, 2, 2], ls: [2, 2, 0], ms_combs: [0, 0, 0, 1, -1, 0, 2, -2, 0], ctildes: [-0.11914819693337399, 0.238296393866748, -0.23829639386674806]}
    - {mu0: 0, rank: 3, ndensity: 1, num_ms_combs: 10, mus: [0, 0, 1], ns: [1, 2, 2], ls: [2, 2, 2], ms_combs: [0, 0, 0, 0, 1, -1, 0, 2, -2, 1, -2, 1, 1, -1, 0, 1, 0, -1, 1, 1, -2, 2, -2, 0, 2, -1, -1, 2, 0, -2], ctildes: [0.015695003855160122, -0.015695003855160122, -0.031390007710320258, 0.038444750956157167, -0.015695003855160122, -0.015695003855160122, 0.038444750956157167, -0.031390007710320245, 0.038444750956157167, -0.031390007710320258]}
    - {mu0: 0, rank: 3, ndensity: 1, num_ms_combs: 1, mus: [0, 0, 1], ns: [2, 2, 1], ls: [0, 0, 0], ms_combs: [0, 0, 0], ctildes: [-0.033531880622301287]}
    - {mu0: 0, rank: 3, ndensity: 1, num_ms_combs: 2, mus: [0, 0, 1], ns: [2, 2, 1], ls: [0, 1, 1], ms_combs: [0, 0, 0, 0, 1, -1], ctildes: [-0.048130645786931638, 0.096261291573863261]}
    - {mu0: 0, rank: 3, ndensity: 1, num_ms_combs: 3, mus: [0, 0, 1], ns: [2, 2, 1], ls: [0, 2, 2], ms_combs: [0, 0, 0, 0, 1, -1, 0, 2, -2], ctildes: [0.038638981255444932, -0.077277962510889878, 0.077277962510889892]}
    - {mu0: 0, rank: 3, ndensity: 1, num_ms_combs: 2, mus: [0, 0, 1], ns: [2, 2, 1], ls: [1, 1, 0], ms_combs: [0, 0, 0, 1, -1, 0], ctildes: [-0.28272823324264706, 0.56545646648529402]}
    - {mu0: 0, rank: 3, ndensity: 1, num_ms_combs: 4, mus: [0, 0, 1], ns: [2, 2, 1], ls: [1, 1, 2], ms_combs: [-1, 1, 0, 0, 0, 0, 0, 1, -1, 1, 1, -2], ctildes: [0.16578733896548994, 0.16578733896548992, -0.5743041886797442, 0.40609438627928562]}
    - {mu0: 0, rank: 3, ndensity: 1, num_ms_combs: 5, mus: [0, 0, 1], ns: [2, 2, 1], ls: [1, 2, 1], ms_combs: [0, 0, 0, 0, 1, -1, 1, -2, 1, 1, -1, 0, 1, 0, -1], ctildes: [-0.24469854640155744, 0.42383031490574802, -0.59938657948456853, 0.42383031490574802, -0.24469854640155742]}
    - {mu0: 0, rank: 3, ndensity: 1, num_ms_combs: 3, mus: [0, 0, 1], ns: [2, 2, 1], ls: [2, 2, 0], ms_combs: [0, 0, 0, 1, -1, 0, 2, -2, 0], ctildes: [-0.13720108316694737, 0.2744021663338948, -0.27440216633389486]}
    - {mu0: 0, rank: 3, ndensity: 1, num_ms_combs: 8, mus: [0, 0, 1], ns: [2, 2, 1], ls: [2, 2, 2], ms_combs: [-2, 1, 1, -2, 2, 0, -1, 1, 0, -1, 2, -1, 0, 0, 0, 0, 1, -1, 0, 2, -2, 1, 1, -2], ctildes: [0.020761629427502117, -0.016951799442043936, -0.0084758997210219681, 0.020761629427502117, 0.0084758997210219681, -0.016951799442043936, -0.033903598884087893, 0.020761629427502117]}
    - {mu0: 0, rank: 3, ndensity: 1, num_ms_combs: 1, mus: [0, 0, 1], ns: [2, 2, 2], ls: [0, 0, 0], ms_combs: [0, 0, 0], ctildes: [-0.17214958920044848]}
    - {mu0: 0, rank: 3, ndensity: 1, num_ms_combs: 2, mus: [0, 0, 1], ns: [2, 2, 2], ls: [0, 1, 1], ms_combs: [0, 0, 0, 0, 1, -1], ctildes: [0.044766743354402228, -0.089533486708804441]}
    - {mu0: 0, rank: 3, ndensity: 1, num_ms_combs: 3, mus: [0, 0, 1], ns: [2, 2, 2], ls: [0, 2, 2], ms_combs: [0, 0, 0, 0, 1, -1, 0, 2, -2], ctildes: [-0.12147578652770719, 0.2429515730554144, -0.24295157305541448]}
    - {mu0: 0, rank: 3, ndensity: 1, num_ms_combs: 2, mus: [0, 0, 1], ns: [2, 2, 2], ls: [1, 1, 0], ms_combs: [0, 0, 0, 1, -1, 0], ctildes: [0.098510838282730606, -0.19702167656546118]}
    - {mu0: 0, rank: 3, ndensity: 1, num_ms_combs: 4, mus: [0, 0, 1], ns: [2, 2, 2], ls: [1, 1, 2], ms_combs: [-1, 1, 0, 0, 0, 0, 0, 1, -1, 1, 1, -2], ctildes: [-0.18925302621930029, -0.18925302621930026, 0.65559171379598602, -0.4635733465148521]}
    - {mu0: 0, rank: 3, ndensity: 1, num_ms_combs: 5, mus: [0, 0, 1], ns: [2, 2, 2], ls: [1, 2, 1], ms_combs: [0, 0, 0, 0, 1, -1, 1, -2, 1, 1, -1, 0, 1, 0, -1], ctildes: [0.14024683467821528, -0.24291464326338158, 0.3435331830020964, -0.24291464326338158, 0.14024683467821525]}
    - {mu0: 0, rank: 3, ndensity: 1, num_ms_combs: 3, mus: [0, 0, 1], ns: [2, 2, 2], ls: [2, 2, 0], ms_combs: [0, 0, 0, 1, -1, 0, 2, -2, 0], ctildes: [0.005772293095610022, -0.011544586191220046, 0.011544586191220049]}
    - {mu0: 0, rank: 3, ndensity: 1, num_ms_combs: 8, mus: [0, 0, 1], ns: [2, 2, 2], ls: [2, 2, 2], ms_combs: [-2, 1, 1, -2, 2, 0, -1, 1, 0, -1, 2, -1, 0, 0, 0, 0, 1, -1, 0, 2, -2, 1, 1, -2], ctildes: [-0.017115107366706236, 0.013974426647126574, 0.0069872133235632872, -0.017115107366706236, -0.0069872133235632872, 0.013974426647126574, 0.027948853294253166, -0.017115107366706236]}
    - {mu0: 0, rank: 3, ndensity: 1, num_ms_combs: 1, mus: [0, 1, 1], ns: [1, 1, 1], ls: [0, 0, 0], ms_combs: [0, 0, 0], ctildes: [-3.383762818498965]}
    - {mu0: 0, rank: 3, ndensity: 1, num_ms_combs: 2, mus: [0, 1, 1], ns: [1, 1, 1], ls: [0, 1, 1], ms_combs: [0, 0, 0, 0, 1, -1], ctildes: [-0.48173107992242348, 0.96346215984484673]}
    - {mu0: 0, rank: 3, ndensity: 1, num_ms_combs: 3, mus: [0, 1, 1], ns: [1, 1, 1], ls: [0, 2, 2], ms_combs: [0, 0, 0, 0, 1, -1, 0, 2, -2], ctildes: [0.081158559724901297, -0.16231711944980262, 0.16231711944980265]}
    - {mu0: 0, rank: 3, ndensity: 1, num_ms_combs: 2, mus: [0, 1, 1], ns: [1, 1, 1], ls: [1, 0, 1], ms_combs: [0, 0, 0, 1, 0, -1], ctildes: [-0.63646363462999433, 1.2729272692599884]}
    - {mu0: 0, rank: 3, ndensity: 1, num_ms_combs: 5, mus: [0, 1, 1], ns: [1, 1, 1], ls: [1, 1, 2], ms_combs: [0, 0, 0, 0, 1, -1, 1, -1, 0, 1, 0, -1, 1, 1, -2], ctildes: [-0.044988921399693689, 0.07792309764199222, -0.044988921399693696, 0.07792309764199222, -0.11019990150742835]}
    - {mu0: 0, rank: 3, ndensity: 1, num_ms_combs: 3, mus: [0, 1, 1], ns: [1, 1, 1], ls: [2, 0, 2], ms_combs: [0, 0, 0, 1, 0, -1, 2, 0, -2], ctildes: [0.38145937632494847, -0.76291875264989706, 0.76291875264989717]}
    - {mu0: 0, rank: 3, ndensity: 1, num_ms_combs: 4, mus: [0, 1, 1], ns: [1, 1, 1], ls: [2, 1, 1], ms_combs: [0, -1, 1, 0, 0, 0, 1, -1, 0, 2, -1, -1], ctildes: [0.071922494680863425, 0.071922494680863439, -0.24914682998871562, 0.17617341299615269]}
    - {mu0: 0, rank: 3, ndensity: 1, num_ms_combs: 7, mus: [0, 1, 1], ns: [1, 1, 1], ls: [2, 2, 2], ms_combs: [0, -2, 2, 0, -1, 1, 0, 0, 0, 1, -2, 1, 1, -1, 0, 2, -2, 0, 2, -1, -1], ctildes: [-0.20972784659269156, -0.10486392329634571, 0.10486392329634571, 0.5137262090048017, -0.20972784659269142, -0.41945569318538295, 0.25686310450240085]}
    - {mu0: 0, rank: 3, ndensity: 1, num_ms_combs: 1, mus: [0, 1, 1], ns: [1, 1, 2], ls: [0, 0, 0], ms_combs: [0, 0, 0], ctildes: [1.6377224204532068]}
    - {mu0: 0, rank: 3, ndensity: 1, num_ms_combs: 2, mus: [0, 1, 1], ns: [1, 1, 2], ls: [0, 1, 1], ms_combs: [0, 0, 0, 0, 1, -1], ctildes: [0.39346902556216939, -0.78693805112433868]}
    - {mu0: 0, rank: 3, ndensity: 1, num_ms_combs: 3, mus: [0, 1, 1], ns: [1, 1, 2], ls: [0, 2, 2], ms_combs: [0, 0, 0, 0, 1, -1, 0, 2, -2], ctildes: [0.098235842978906876, -0.19647168595781378, 0.19647168595781384]}
    - {mu0: 0, rank: 3, ndensity: 1, num_ms_combs: 2, mus: [0, 1, 1], ns: [1, 1, 2], ls: [1, 0, 1], ms_combs: [0, 0, 0, 1, 0, -1], ctildes: [0.56073213874597616, -1.1214642774919521]}
    - {mu0: 0, rank: 3, ndensity: 1, num_ms_combs: 2, mus: [0, 1, 1], ns: [1, 1, 2], ls: [1, 1, 0], ms_combs: [0, 0, 0, 1, -1, 0], ctildes: [0.56139914510804223, -1.1227982902160842]}
    - {mu0: 0, rank: 3, ndensity: 1, num_ms_combs: 5, mus: [0, 1, 1], ns: [1, 1, 2], ls: [1, 1, 2], ms_combs: [0, 0, 0, 0, 1, -1, 1, -1, 0, 1, 0, -1, 1, 1, -2], ctildes: [0.16814820914955683, -0.29124124144875047, 0.16814820914955686, -0.29124124144875047, 0.41187731357920015]}
    - {mu0: 0, rank: 3, ndensity: 1, num_ms_combs: 5, mus: [0, 1, 1], ns: [1, 1, 2], ls: [1, 2, 1], ms_combs: [0, 0, 0, 0, 1, -1, 1, -2, 1, 1, -1, 0, 1, 0, -1], ctildes: [0.048558023113903323, -0.084104963148384462, 0.11894237954733466, -0.084104963148384462, 0.048558023113903316]}
    - {mu0: 0, rank: 3, ndensity: 1, num_ms_combs: 3, mus: [0, 1, 1], ns: [1, 1, 2], ls: [2, 0, 2], ms_combs: [0, 0, 0, 1, 0, -1, 2, 0, -2], ctildes: [0.26426288558748773, -0.52852577117497557, 0.52852577117497568]}
    - {mu0: 0, rank: 3, ndensity: 1, num_ms_combs: 5, mus: [0, 1, 1], ns: [1, 1, 2], ls: [2, 1, 1], ms_combs: [0, 0, 0, 0, 1, -1, 1, -1, 0, 1, 0, -1, 2, -1, -1], ctildes: [0.025837639720360607, 0.025837639720360604, -0.044752104743324292, -0.044752104743324292, 0.063289033472750528]}
    - {mu0: 0, rank: 3, ndensity: 1, num_ms_combs: 3, mus: [0, 1, 1], ns: [1, 1, 2], ls: [2, 2, 0], ms_combs: [0, 0, 0, 1, -1, 0, 2, -2, 0], ctildes: [0.060066124181793128, -0.12013224836358628, 0.12013224836358631]}
    - {mu0: 0, rank: 3, ndensity: 1, num_ms_combs: 10, mus: [0, 1, 1], ns: [1, 1, 2], ls: [2, 2, 2], ms_combs: [0, 0, 0, 0, 1, -1, 0, 2, -2, 1, -2, 1, 1, -1, 0, 1, 0, -1, 1, 1, -2, 2, -2, 0, 2, -1, -1, 2, 0, -2], ctildes: [-0.14612561292410012, 0.14612561292410012, 0.2922512258482004, -0.35793319001548835, 0.14612561292410012, 0.14612561292410012, -0.35793319001548835, 0.29225122584820024, -0.35793319001548835, 0.2922512258482004]}
    - {mu0: 0, rank: 3, ndensity: 1, num_ms_combs: 1, mus: [0, 1, 1], ns: [1, 2, 2], ls: [0, 0, 0], ms_combs: [0, 0, 0], ctildes: [-0.44599604656640579]}
    - {mu0: 0, rank: 3, ndensity: 1, num_ms_combs: 2, mus: [0, 1, 1], ns: [1, 2, 2], ls: [0, 1, 1], ms_combs: [0, 0, 0, 0, 1, -1], ctildes: [-0.17854782152655008, 0.3570956430531001]}
    - {mu0: 0, rank: 3, ndensity: 1, num_ms_combs: 3, mus: [0, 1, 1], ns: [1, 2, 2], ls: [0, 2, 2], ms_combs: [0, 0, 0, 0, 1, -1, 0, 2, -2], ctildes: [-0.060300615693602642, 0.1206012313872053, -0.12060123138720533]}
    - {mu0: 0, rank: 3, ndensity: 1, num_ms_combs: 2, mus: [0, 1, 1], ns: [1, 2, 2], ls: [1, 0, 1], ms_combs: [0, 0, 0, 1, 0, -1], ctildes: [-0.43501590259268336, 0.87003180518536649]}
    - {mu0: 0, rank: 3, ndensity: 1, num_ms_combs: 5, mus: [0, 1, 1], ns: [1, 2, 2], ls: [1, 1, 2], ms_combs: [0, 0, 0, 0, 1, -1, 1, -1, 0, 1, 0, -1, 1, 1, -2], ctildes: [-0.089626376529625587, 0.15523743784761029, -0.089626376529625601, 0.15523743784761029, -0.21953888999214094]}
    - {mu0: 0, rank: 3, ndensity: 1, num_ms_combs: 3, mus: [0, 1, 1], ns: [1, 2, 2], ls: [2, 0, 2], ms_combs: [0, 0, 0, 1, 0, -1, 2, 0, -2], ctildes: [-0.11267473867937468, 0.22534947735874938, -0.22534947735874944]}
    - {mu0: 0, rank: 3, ndensity: 1, num_ms_combs: 4, mus: [0, 1, 1], ns: [1, 2, 2], ls: [2, 1, 1], ms_combs: [0, -1, 1, 0, 0, 0, 1, -1, 0, 2, -1, -1], ctildes: [0.01244461483998504, 0.012444614839985041, -0.04310941036695945, 0.030482956403430676]}
    - {mu0: 0, rank: 3, ndensity: 1, num_ms_combs: 7, mus: [0, 1, 1], ns: [1, 2, 2], ls: [2, 2, 2], ms_combs: [0, -2, 2, 0, -1, 1, 0, 0, 0, 1, -2, 1, 1, -1, 0, 2, -2, 0, 2, -1, -1], ctildes: [-0.096043167540048324, -0.048021583770024134, 0.048021583770024134, 0.23525675375375457, -0.096043167540048269, -0.19208633508009659, 0.11762837687687729]}
    - {mu0: 0, rank: 3, ndensity: 1, num_ms_combs: 1, mus: [0, 1, 1], ns: [2, 1, 1], ls: [0, 0, 0], ms_combs: [0, 0, 0], ctildes: [0.18535686342783947]}
    - {mu0: 0, rank: 3, ndensity: 1, num_ms_combs: 2, mus: [0, 1, 1], ns: [2, 1, 1], ls: [0, 1, 1], ms_combs: [0, 0, 0, 0, 1, -1], ctildes: [0.09749908459809746, -0.19499816919619489]}
    - {mu0: 0, rank: 3, ndensity: 1, num_ms_combs: 3, mus: [0, 1, 1], ns: [2, 1, 1], ls: [0, 2, 2], ms_combs: [0, 0, 0, 0, 1, -1, 0, 2, -2], ctildes: [-0.035760286951465721, 0.071520573902931456, -0.07152057390293147]}
    - {mu0: 0, rank: 3, ndensity: 1, num_ms_combs: 2, mus: [0, 1, 1], ns: [2, 1, 1], ls: [1, 0, 1], ms_combs: [0, 0, 0, 1, 0, -1], ctildes: [-0.36123202191806386, 0.72246404383612761]}
    - {mu0: 0, rank: 3, ndensity: 1, num_ms_combs: 5, mus: [0, 1, 1], ns: [2, 1, 1], ls: [1, 1, 2], ms_combs: [0, 0, 0, 0, 1, -1, 1, -1, 0, 1, 0, -1, 1, 1, -2], ctildes: [0.1159110930936692, -0.2007639023990811, 0.11591109309366922, -0.2007639023990811, 0.28392303360772891]}
    - {mu0: 0, rank: 3, ndensity: 1, num_ms_combs: 3, mus: [0, 1, 1], ns: [2, 1, 1], ls: [2, 0, 2], ms_combs: [0, 0, 0, 1, 0, -1, 2, 0, -2], ctildes: [-0.21083014691259827, 0.4216602938251966, -0.42166029382519671]}
    - {mu0: 0, rank: 3, ndensity: 1, num_ms_combs: 4, mus: [0, 1, 1], ns: [2, 1, 1], ls: [2, 1, 1], ms_combs: [0, -1, 1, 0, 0, 0, 1, -1, 0, 2, -1, -1], ctildes: [-0.043930370544404226, -0.043930370544404233, 0.15217926755647077, -0.10760699204518243]}
    - {mu0: 0, rank: 3, ndensity: 1, num_ms_combs: 7, mus: [0, 1, 1], ns: [2, 1, 1], ls: [2, 2, 2], ms_combs: [0, -2, 2, 0, -1, 1, 0, 0, 0, 1, -2, 1, 1, -1, 0, 2, -2, 0, 2, -1, -1], ctildes: [0.13815504342376192, 0.069077521711880918, -0.069077521711880918, -0.33840936178026926, 0.13815504342376184, 0.27631008684752373, -0.16920468089013463]}
    - {mu0: 0, rank: 3, ndensity: 1, num_ms_combs: 1, mus: [0, 1, 1], ns: [2, 1, 2], ls: [0, 0, 0], ms_combs: [0, 0, 0], ctildes: [-0.28863221411981987]}
    - {mu0: 0, rank: 3, ndensity: 1, num_ms_combs: 2, mus: [0, 1, 1], ns: [2, 1, 2], ls: [0, 1, 1], ms_combs: [0, 0, 0, 0, 1, -1], ctildes: [-0.11316966772185866, 0.22633933544371726]}
    - {mu0: 0, rank: 3, ndensity: 1, num_ms_combs: 3, mus: [0, 1, 1], ns: [2, 1, 2], ls: [0, 2, 2], ms_combs: [0, 0, 0, 0, 1, -1, 0, 2, -2], ctildes: [0.044060663807028749, -0.088121327614057512, 0.088121327614057526]}
    - {mu0: 0, rank: 3, ndensity: 1, num_ms_combs: 2, mus: [0, 1, 1], ns: [2, 1, 2], ls: [1, 0, 1], ms_combs: [0, 0, 0, 1, 0, -1], ctildes: [-0.34419108610222271, 0.68838217220444531]}
    - {mu0: 0, rank: 3, ndensity: 1, num_ms_combs: 2, mus: [0, 1, 1], ns: [2, 1, 2], ls: [1, 1, 0], ms_combs: [0, 0, 0, 1, -1, 0], ctildes: [0.033759341809707299, -0.067518683619414585]}
    - {mu0: 0, rank: 3, ndensity: 1, num_ms_combs: 5, mus: [0, 1, 1], ns: [2, 1, 2], ls: [1, 1, 2], ms_combs: [0, 0, 0, 0, 1, -1, 1, -1, 0, 1, 0, -1, 1, 1, -2], ctildes: [-0.096680746455295258, 0.16745596497425608, -0.096680746455295272, 0.16745596497425608, -0.23681849676686692]}
    - {mu0: 0, rank: 3, ndensity: 1, num_ms_combs: 5, mus: [0, 1, 1], ns: [2, 1, 2], ls: [1, 2, 1], ms_combs: [0, 0, 0, 0, 1, -1, 1, -2, 1, 1, -1, 0, 1, 0, -1], ctildes: [0.12228961927774122, -0.21181183382730226, 0.29954716806968712, -0.21181183382730226, 0.12228961927774121]}
    - {mu0: 0, rank: 3, ndensity: 1, num_ms_combs: 3, mus: [0, 1, 1], ns: [2, 1, 2], ls: [2, 0, 2], ms_combs: [0, 0, 0, 1, 0, -1, 2, 0, -2], ctildes: [-0.062128768713336738, 0.1242575374266735, -0.12425753742667353]}
    - {mu0: 0, rank: 3, ndensity: 1, num_ms_combs: 5, mus: [0, 1, 1], ns: [2, 1, 2], ls: [2, 1, 1], ms_combs: [0, 0, 0, 0, 1, -1, 1, -1, 0, 1, 0, -1, 2, -1, -1], ctildes: [0.05089149919463766, 0.050891499194637653, -0.088146662278463031, -0.088146662278463031, 0.1246582052721233]}
    - {mu0: 0, rank: 3, ndensity: 1, num_ms_combs: 3, mus: [0, 1, 1], ns: [2, 1, 2], ls: [2, 2, 0], ms_combs: [0, 0, 0, 1, -1, 0, 2, -2, 0], ctildes: [0.095893375365934785, -0.1917867507318696, 0.19178675073186965]}
    - {mu0: 0, rank: 3, ndensity: 1, num_ms_combs: 10, mus: [0, 1, 1], ns: [2, 1, 2], ls: [2, 2, 2], ms_combs: [0, 0, 0, 0, 1, -1, 0, 2, -2, 1, -2, 1, 1, -1, 0, 1, 0, -1, 1, 1, -2, 2, -2, 0, 2, -1, -1, 2, 0, -2], ctildes: [0.1580190392073165, -0.1580190392073165, -0.31603807841463316, 0.38706601570277471, -0.1580190392073165, -0.1580190392073165, 0.38706601570277471, -0.31603807841463299, 0.38706601570277471, -0.31603807841463316]}
    - {mu0: 0, rank: 3, ndensity: 1, num_ms_combs: 1, mus: [0, 1, 1], ns: [2, 2, 2], ls: [0, 0, 0], ms_combs: [0, 0, 0], ctildes: [-0.16435607647435604]}
    - {mu0: 0, rank: 3, ndensity: 1, num_ms_combs: 2, mus: [0, 1, 1], ns: [2, 2, 2], ls: [0, 1, 1], ms_combs: [0, 0, 0, 0, 1, -1], ctildes: [-0.025887810870609675, 0.051775621741219344]}
    - {mu0: 0, rank: 3, ndensity: 1, num_ms_combs: 3, mus: [0, 1, 1], ns: [2, 2, 2], ls: [0, 2, 2], ms_combs: [0, 0, 0, 0, 1, -1, 0, 2, -2], ctildes: [-0.019762092850982339, 0.039524185701964677, -0.039524185701964691]}
    - {mu0: 0, rank: 3, ndensity: 1, num_ms_combs: 2, mus: [0, 1, 1], ns: [2, 2, 2], ls: [1, 0, 1], ms_combs: [0, 0, 0, 1, 0, -1], ctildes: [0.086233210457417539, -0.17246642091483502]}
    - {mu0: 0, rank: 3, ndensity: 1, num_ms_combs: 5, mus: [0, 1, 1], ns: [2, 2, 2], ls: [1, 1, 2], ms_combs: [0, 0, 0, 0, 1, -1, 1, -1, 0, 1, 0, -1, 1, 1, -2], ctildes: [-0.095700475388535711, 0.16575808568143877, -0.095700475388535725, 0.16575808568143877, -0.23441733284369229]}
    - {mu0: 0, rank: 3, ndensity: 1, num_ms_combs: 3, mus: [0, 1, 1], ns: [2, 2, 2], ls: [2, 0, 2], ms_combs: [0, 0, 0, 1, 0, -1, 2, 0, -2], ctildes: [-0.074971257560501617, 0.14994251512100326, -0.14994251512100329]}
    - {mu0: 0, rank: 3, ndensity: 1, num_ms_combs: 4, mus: [0, 1, 1], ns: [2, 2, 2], ls: [2, 1, 1], ms_combs: [0, -1, 1, 0, 0, 0, 1, -1, 0, 2, -1, -1], ctildes: [-0.038829025411438116, -0.038829025411438123, 0.13450768964198773, -0.09511129946758505]}
    - {mu0: 0, rank: 3, ndensity: 1, num_ms_combs: 7, mus: [0, 1, 1], ns: [2, 2, 2], ls: [2, 2, 2], ms_combs: [0, -2, 2, 0, -1, 1, 0, 0, 0, 1, -2, 1, 1, -1, 0, 2, -2, 0, 2, -1, -1], ctildes: [0.10555764586469241, 0.052778822932346169, -0.052778822932346169, -0.25856237081790312, 0.10555764586469234, 0.21111529172938473, -0.12928118540895156]}
    - {mu0: 0, rank: 3, ndensity: 1, num_ms_combs: 1, mus: [1, 1, 1], ns: [1, 1, 1], ls: [0, 0, 0], ms_combs: [0, 0, 0], ctildes: [-1.1078221933125609]}
    - {mu0: 0, rank: 3, ndensity: 1, num_ms_combs: 2, mus: [1, 1, 1], ns: [1, 1, 1], ls: [0, 1, 1], ms_combs: [0, 0, 0, 0, 1, -1], ctildes: [-0.8252004099749416, 1.6504008199498827]}
    - {mu0: 0, rank: 3, ndensity: 1, num_ms_combs: 3, mus: [1, 1, 1], ns: [1, 1, 1], ls: [0, 2, 2], ms_combs: [0, 0, 0, 0, 1, -1, 0, 2, -2], ctildes: [0.025374080640376776, -0.050748161280753559, 0.050748161280753573]}
    - {mu0: 0, rank: 3, ndensity: 1, num_ms_combs: 4, mus: [1, 1, 1], ns: [1, 1, 1], ls: [1, 1, 2], ms_combs: [-1, 1, 0, 0, 0, 0, 0, 1, -1, 1, 1, -2], ctildes: [-0.071708007213167682, -0.071708007213167668, 0.24840382360544394, -0.17564802814407643]}
    - {mu0: 0, rank: 3, ndensity: 1, num_ms_combs: 5, mus: [1, 1, 1], ns: [1, 1, 1], ls: [2, 2, 2], ms_combs: [-2, 0, 2, -2, 1, 1, -1, -1, 2, -1, 0, 1, 0, 0, 0], ctildes: [-0.10622017139136128, 0.086728406766603539, 0.043364203383301769, -0.053110085695680626, 0.017703361898560206]}
    - {mu0: 0, rank: 3, ndensity: 1, num_ms_combs: 1, mus: [1, 1, 1], ns: [1, 1, 2], ls: [0, 0, 0], ms_combs: [0, 0, 0], ctildes: [0.50071099011054454]}
    - {mu0: 0, rank: 3, ndensity: 1, num_ms_combs: 2, mus: [1, 1, 1], ns: [1, 1, 2], ls: [0, 1, 1], ms_combs: [0, 0, 0, 0, 1, -1], ctildes: [0.50710612075503458, -1.0142122415100692]}
    - {mu0: 0, rank: 3, ndensity: 1, num_ms_combs: 3, mus: [1, 1, 1], ns: [1, 1, 2], ls: [0, 2, 2], ms_combs: [0, 0, 0, 0, 1, -1, 0, 2, -2], ctildes: [-0.053824862135300959, 0.10764972427060193, -0.10764972427060196]}
    - {mu0: 0, rank: 3, ndensity: 1, num_ms_combs: 2, mus: [1, 1, 1], ns: [1, 1, 2], ls: [1, 1, 0], ms_combs: [0, 0, 0, 1, -1, 0], ctildes: [0.44296519280114066, -0.88593038560228121]}
    - {mu0: 0, rank: 3, ndensity: 1, num_ms_combs: 4, mus: [1, 1, 1], ns: [1, 1, 2], ls: [1, 1, 2], ms_combs: [-1, 1, 0, 0, 0, 0, 0, 1, -1, 1, 1, -2], ctildes: [0.061711932543914869, 0.061711932543914855, -0.21377640519864768, 0.15116274577364691]}
    - {mu0: 0, rank: 3, ndensity: 1, num_ms_combs: 5, mus: [1, 1, 1], ns: [1, 1, 2], ls: [1, 2, 1], ms_combs: [0, 0, 0, 0, 1, -1, 1, -2, 1, 1, -1, 0, 1, 0, -1], ctildes: [0.31470747556232254, -0.54508933719568353, 0.77087273336709672, -0.54508933719568353, 0.31470747556232248]}
    - {mu0: 0, rank: 3, ndensity: 1, num_ms_combs: 3, mus: [1, 1, 1], ns: [1, 1, 2], ls: [2, 2, 0], ms_combs: [0, 0, 0, 1, -1, 0, 2, -2, 0], ctildes: [0.042563481600439726, -0.085126963200879466, 0.08512696320087948]}
    - {mu0: 0, rank: 3, ndensity: 1, num_ms_combs: 8, mus: [1, 1, 1], ns: [1, 1, 2], ls: [2, 2, 2], ms_combs: [-2, 1, 1, -2, 2, 0, -1, 1, 0, -1, 2, -1, 0, 0, 0, 0, 1, -1, 0, 2, -2, 1, 1, -2], ctildes: [-0.056396483765327368, 0.046047536170735794, 0.023023768085367897, -0.056396483765327368, -0.023023768085367897, 0.046047536170735794, 0.092095072341471629, -0.056396483765327368]}
    - {mu0: 0, rank: 3, ndensity: 1, num_ms_combs: 1, mus: [1, 1, 1], ns: [1, 2, 2], ls: [0, 0, 0], ms_combs: [0, 0, 0], ctildes: [-0.16166847278803803]}
    - {mu0: 0, rank: 3, ndensity: 1, num_ms_combs: 2, mus: [1, 1, 1], ns: [1, 2, 2], ls: [0, 1, 1], ms_combs: [0, 0, 0, 0, 1, -1], ctildes: [-0.21978001292233207, 0.43956002584466408]}
    - {mu0: 0, rank: 3, ndensity: 1, num_ms_combs: 3, mus: [1, 1, 1], ns: [1, 2, 2], ls: [0, 2, 2], ms_combs: [0, 0, 0, 0, 1, -1, 0, 2, -2], ctildes: [0.024442688074948388, -0.048885376149896777, 0.048885376149896791]}
    - {mu0: 0, rank: 3, ndensity: 1, num_ms_combs: 2, mus: [1, 1, 1], ns: [1, 2, 2], ls: [1, 0, 1], ms_combs: [0, 0, 0, 1, 0, -1], ctildes: [-0.39123322677379951, 0.78246645354759892]}
    - {mu0: 0, rank: 3, ndensity: 1, num_ms_combs: 5, mus: [1, 1, 1], ns: [1, 2, 2], ls: [1, 1, 2], ms_combs: [0, 0, 0, 0, 1, -1, 1, -1, 0, 1, 0, -1, 1, 1, -2], ctildes: [-0.14008414283534196, 0.24263285272554808, -0.14008414283534198, 0.24263285272554808, -0.34313467100174394]}
    - {mu0: 0, rank: 3, ndensity: 1, num_ms_combs: 3, mus: [1, 1, 1], ns: [1, 2, 2], ls: [2, 0, 2], ms_combs: [0, 0, 0, 1, 0, -1, 2, 0, -2], ctildes: [0.045548509628642313, -0.091097019257284639, 0.091097019257284667]}
    - {mu0: 0, rank: 3, ndensity: 1, num_ms_combs: 4, mus: [1, 1, 1], ns: [1, 2, 2], ls: [2, 1, 1], ms_combs: [0, -1, 1, 0, 0, 0, 1, -1, 0, 2, -1, -1], ctildes: [-0.090367310082864735, -0.090367310082864749, 0.31304154481370605, -0.22135379913088404]}
    - {mu0: 0, rank: 3, ndensity: 1, num_ms_combs: 7, mus: [1, 1, 1], ns: [1, 2, 2], ls: [2, 2, 2], ms_combs: [0, -2, 2, 0, -1, 1, 0, 0, 0, 1, -2, 1, 1, -1, 0, 2, -2, 0, 2, -1, -1], ctildes: [-0.052098434028007047, -0.02604921701400351, 0.02604921701400351, 0.12761457976666932, -0.052098434028007019, -0.10419686805601407, 0.063807289883334659]}
    - {mu0: 0, rank: 3, ndensity: 1, num_ms_combs: 1, mus: [1, 1, 1], ns: [2, 2, 2], ls: [0, 0, 0], ms_combs: [0, 0, 0], ctildes: [-0.062984485477390412]}
    - {mu0: 0, rank: 3, ndensity: 1, num_ms_combs: 2, mus: [1, 1, 1], ns: [2, 2, 2], ls: [0, 1, 1], ms_combs: [0, 0, 0, 0, 1, -1], ctildes: [0.042307706829249142, -0.08461541365849827]}
    - {mu0: 0, rank: 3, ndensity: 1, num_ms_combs: 3, mus: [1, 1, 1], ns: [2, 2, 2], ls: [0, 2, 2], ms_combs: [0, 0, 0, 0, 1, -1, 0, 2, -2], ctildes: [-0.064148857487849681, 0.12829771497569939, -0.12829771497569942]}
    - {mu0: 0, rank: 3, ndensity: 1, num_ms_combs: 4, mus: [1, 1, 1], ns: [2, 2, 2], ls: [1, 1, 2], ms_combs: [-1, 1, 0, 0, 0, 0, 0, 1, -1, 1, 1, -2], ctildes: [0.0021534638179197324, 0.0021534638179197319, -0.0074598174897964609, 0.0052748875334490868]}
    - {mu0: 0, rank: 3, ndensity: 1, num_ms_combs: 5, mus: [1, 1, 1], ns: [2, 2, 2], ls: [2, 2, 2], ms_combs: [-2, 0, 2, -2, 1, 1, -1, -1, 2, -1, 0, 1, 0, 0, 0], ctildes: [0.063611753402498292, -0.051938779159957489, -0.025969389579978745, 0.031805876701249132, -0.010601958900416377]}
    - {mu0: 0, rank: 4, ndensity: 1, num_ms_combs: 1, mus: [0, 0, 0, 0], ns: [1, 1, 1, 1], ls: [0, 0, 0, 0], ms_combs: [0, 0, 0, 0], ctildes: [-0.019118979608211843]}
    - {mu0: 0, rank: 4, ndensity: 1, num_ms_combs: 2, mus: [0, 0, 0, 0], ns: [1, 1, 1, 1], ls: [0, 0, 1, 1], ms_combs: [0, 0, 0, 0, 0, 0, 1, -1], ctildes: [-0.30056420300365244, 0.60112840600730477]}
    - {mu0: 0, rank: 4, ndensity: 1, num_ms_combs: 3, mus: [0, 0, 0, 0], ns: [1, 1, 1, 1], ls: [1, 1, 1, 1], ms_combs: [-1, -1, 1, 1, -1, 0, 0, 1, 0, 0, 0, 0], ctildes: [0.59929975480627251, -0.59929975480627262, 0.14982493870156821]}
    - {mu0: 0, rank: 4, ndensity: 1, num_ms_combs: 1, mus: [0, 0, 0, 1], ns: [1, 1, 1, 1], ls: [0, 0, 0, 0], ms_combs: [0, 0, 0, 0], ctildes: [0.12538890323727081]}
    - {mu0: 0, rank: 4, ndensity: 1, num_ms_combs: 2, mus: [0, 0, 0, 1], ns: [1, 1, 1, 1], ls: [0, 0, 1, 1], ms_combs: [0, 0, 0, 0, 0, 0, 1, -1], ctildes: [-0.22807080951051897, 0.45614161902103789]}
    - {mu0: 0, rank: 4, ndensity: 1, num_ms_combs: 2, mus: [0, 0, 0, 1], ns: [1, 1, 1, 1], ls: [0, 1, 1, 0], ms_combs: [0, 0, 0, 0, 0, 1, -1, 0], ctildes: [-0.36643847730269025, 0.73287695460538038]}
    - {mu0: 0, rank: 4, ndensity: 1, num_ms_combs: 5, mus: [0, 0, 0, 1], ns: [1, 1, 1, 1], ls: [1, 1, 1, 1], ms_combs: [0, 0, 0, 0, 0, 0, 1, -1, 1, -1, -1, 1, 1, -1, 0, 0, 1, -1, 1, -1], ctildes: [0.50911606649129981, -1.0182321329825994, 1.0182321329825992, -1.0182321329825994, 1.0182321329825992]}
    - {mu0: 0, rank: 4, ndensity: 1, num_ms_combs: 1, mus: [0, 0, 1, 1], ns: [1, 1, 1, 1], ls: [0, 0, 0, 0], ms_combs: [0, 0, 0, 0], ctildes: [0.64591125728860999]}
    - {mu0: 0, rank: 4, ndensity: 1, num_ms_combs: 2, mus: [0, 0, 1, 1], ns: [1, 1, 1, 1], ls: [0, 0, 1, 1], ms_combs: [0, 0, 0, 0, 0, 0, 1, -1], ctildes: [0.043855694707928841, -0.087711389415857655]}
    - {mu0: 0, rank: 4, ndensity: 1, num_ms_combs: 2, mus: [0, 0, 1, 1], ns: [1, 1, 1, 1], ls: [0, 1, 0, 1], ms_combs: [0, 0, 0, 0, 0, 1, 0, -1], ctildes: [0.080628988448740432, -0.16125797689748084]}
    - {mu0: 0, rank: 4, ndensity: 1, num_ms_combs: 2, mus: [0, 0, 1, 1], ns: [1, 1, 1, 1], ls: [1, 1, 0, 0], ms_combs: [0, 0, 0, 0, 1, -1, 0, 0], ctildes: [-0.14339768120704219, 0.28679536241408432]}
    - {mu0: 0, rank: 4, ndensity: 1, num_ms_combs: 6, mus: [0, 0, 1, 1], ns: [1, 1, 1, 1], ls: [1, 1, 1, 1], ms_combs: [-1, 1, -1, 1, -1, 1, 0, 0, 0, 0, -1, 1, 0, 0, 0, 0, 0, 1, -1, 0, 1, 1, -1, -1], ctildes: [0.99294883724764715, -0.0097283637128239286, -0.0097283637128239286, 0.49161023676741167, -1.9469842196439993, 0.97349210982199963]}
    - {mu0: 0, rank: 4, ndensity: 1, num_ms_combs: 1, mus: [0, 1, 1, 1], ns: [1, 1, 1, 1], ls: [0, 0, 0, 0], ms_combs: [0, 0, 0, 0], ctildes: [0.41593785802508182]}
    - {mu0: 0, rank: 4, ndensity: 1, num_ms_combs: 2, mus: [0, 1, 1, 1], ns: [1, 1, 1, 1], ls: [0, 0, 1, 1], ms_combs: [0, 0, 0, 0, 0, 0, 1, -1], ctildes: [0.095931125163744399, -0.19186225032748877]}
    - {mu0: 0, rank: 4, ndensity: 1, num_ms_combs: 2, mus: [0, 1, 1, 1], ns: [1, 1, 1, 1], ls: [1, 0, 0, 1], ms_combs: [0, 0, 0, 0, 1, 0, 0, -1], ctildes: [0.11789751686751421, -0.23579503373502839]}
    - {mu0: 0, rank: 4, ndensity: 1, num_ms_combs: 4, mus: [0, 1, 1, 1], ns: [1, 1, 1, 1], ls: [1, 1, 1, 1], ms_combs: [0, -1, 0, 1, 0, 0, 0, 0, 1, -1, -1, 1, 1, -1, 0, 0], ctildes: [-0.51987294507104698, 0.25993647253552354, 1.0397458901420937, -0.51987294507104698]}
    - {mu0: 0, rank: 4, ndensity: 1, num_ms_combs: 1, mus: [1, 1, 1, 1], ns: [1, 1, 1, 1], ls: [0, 0, 0, 0], ms_combs: [0, 0, 0, 0], ctildes: [0.080651438452823063]}
    - {mu0: 0, rank: 4, ndensity: 1, num_ms_combs: 2, mus: [1, 1, 1, 1], ns: [1, 1, 1, 1], ls: [0, 0, 1, 1], ms_combs: [0, 0, 0, 0, 0, 0, 1, -1], ctildes: [0.052250573886396853, -0.10450114777279368]}
    - {mu0: 0, rank: 4, ndensity: 1, num_ms_combs: 3, mus: [1, 1, 1, 1], ns: [1, 1, 1, 1], ls: [1, 1, 1, 1], ms_combs: [-1, -1, 1, 1, -1, 0, 0, 1, 0, 0, 0, 0], ctildes: [0.17474649007573834, -0.17474649007573836, 0.043686622518934605]}
  1:
    - {mu0: 1, rank: 1, ndensity: 1, num_ms_combs: 1, mus: [0], ns: [1], ls: [0], ms_combs: [0], ctildes: [4.277892428800631]}
    - {mu0: 1, rank: 1, ndensity: 1, num_ms_combs: 1, mus: [0], ns: [2], ls: [0], ms_combs: [0], ctildes: [-4.2705670029672067]}
    - {mu0: 1, rank: 1, ndensity: 1, num_ms_combs: 1, mus: [0], ns: [3], ls: [0], ms_combs: [0], ctildes: [-0.1658918045425429]}
    - {mu0: 1, rank: 1, ndensity: 1, num_ms_combs: 1, mus: [0], ns: [4], ls: [0], ms_combs: [0], ctildes: [2.7491552412248992]}
    - {mu0: 1, rank: 1, ndensity: 1, num_ms_combs: 1, mus: [0], ns: [5], ls: [0], ms_combs: [0], ctildes: [-4.159299131685593]}
    - {mu0: 1, rank: 1, ndensity: 1, num_ms_combs: 1, mus: [0], ns: [6], ls: [0], ms_combs: [0], ctildes: [4.5577980203076747]}
    - {mu0: 1, rank: 1, ndensity: 1, num_ms_combs: 1, mus: [0], ns: [7], ls: [0], ms_combs: [0], ctildes: [-4.276562093648792]}
    - {mu0: 1, rank: 1, ndensity: 1, num_ms_combs: 1, mus: [0], ns: [8], ls: [0], ms_combs: [0], ctildes: [3.5092901909000385]}
    - {mu0: 1, rank: 1, ndensity: 1, num_ms_combs: 1, mus: [0], ns: [9], ls: [0], ms_combs: [0], ctildes: [-2.5595636807005056]}
    - {mu0: 1, rank: 1, ndensity: 1, num_ms_combs: 1, mus: [0], ns: [10], ls: [0], ms_combs: [0], ctildes: [1.6407021498375929]}
    - {mu0: 1, rank: 1, ndensity: 1, num_ms_combs: 1, mus: [0], ns: [11], ls: [0], ms_combs: [0], ctildes: [-0.92317543513765332]}
    - {mu0: 1, rank: 1, ndensity: 1, num_ms_combs: 1, mus: [0], ns: [12], ls: [0], ms_combs: [0], ctildes: [0.44210595079798565]}
    - {mu0: 1, rank: 1, ndensity: 1, num_ms_combs: 1, mus: [0], ns: [13], ls: [0], ms_combs: [0], ctildes: [-0.17649652059612081]}
    - {mu0: 1, rank: 1, ndensity: 1, num_ms_combs: 1, mus: [0], ns: [14], ls: [0], ms_combs: [0], ctildes: [0.052934996149341718]}
    - {mu0: 1, rank: 1, ndensity: 1, num_ms_combs: 1, mus: [0], ns: [15], ls: [0], ms_combs: [0], ctildes: [-0.010819469766950288]}
    - {mu0: 1, rank: 1, ndensity: 1, num_ms_combs: 1, mus: [1], ns: [1], ls: [0], ms_combs: [0], ctildes: [2.3247039959541556]}
    - {mu0: 1, rank: 1, ndensity: 1, num_ms_combs: 1, mus: [1], ns: [2], ls: [0], ms_combs: [0], ctildes: [-1.6197524224547217]}
    - {mu0: 1, rank: 1, ndensity: 1, num_ms_combs: 1, mus: [1], ns: [3], ls: [0], ms_combs: [0], ctildes: [-1.9335900733714277]}
    - {mu0: 1, rank: 1, ndensity: 1, num_ms_combs: 1, mus: [1], ns: [4], ls: [0], ms_combs: [0], ctildes: [4.2490497144047907]}
    - {mu0: 1, rank: 1, ndensity: 1, num_ms_combs: 1, mus: [1], ns: [5], ls: [0], ms_combs: [0], ctildes: [-4.8066403610896042]}
    - {mu0: 1, rank: 1, ndensity: 1, num_ms_combs: 1, mus: [1], ns: [6], ls: [0], ms_combs: [0], ctildes: [4.2506283341722435]}
    - {mu0: 1, rank: 1, ndensity: 1, num_ms_combs: 1, mus: [1], ns: [7], ls: [0], ms_combs: [0], ctildes: [-3.227665638227073]}
    - {mu0: 1, rank: 1, ndensity: 1, num_ms_combs: 1, mus: [1], ns: [8], ls: [0], ms_combs: [0], ctildes: [2.1685750059804847]}
    - {mu0: 1, rank: 1, ndensity: 1, num_ms_combs: 1, mus: [1], ns: [9], ls: [0], ms_combs: [0], ctildes: [-1.3001412551610929]}
    - {mu0: 1, rank: 1, ndensity: 1, num_ms_combs: 1, mus: [1], ns: [10], ls: [0], ms_combs: [0], ctildes: [0.69374145441288615]}
    - {mu0: 1, rank: 1, ndensity: 1, num_ms_combs: 1, mus: [1], ns: [11], ls: [0], ms_combs: [0], ctildes: [-0.32551219817614852]}
    - {mu0: 1, rank: 1, ndensity: 1, num_ms_combs: 1, mus: [1], ns: [12], ls: [0], ms_combs: [0], ctildes: [0.13047559309504808]}
    - {mu0: 1, rank: 1, ndensity: 1, num_ms_combs: 1, mus: [1], ns: [13], ls: [0], ms_combs: [0], ctildes: [-0.042800435371355944]}
    - {mu0: 1, rank: 1, ndensity: 1, num_ms_combs: 1, mus: [1], ns: [14], ls: [0], ms_combs: [0], ctildes: [0.010479475962625766]}
    - {mu0: 1, rank: 1, ndensity: 1, num_ms_combs: 1, mus: [1], ns: [15], ls: [0], ms_combs: [0], ctildes: [-0.0016387809589660462]}
    - {mu0: 1, rank: 2, ndensity: 1, num_ms_combs: 1, mus: [0, 0], ns: [1, 1], ls: [0, 0], ms_combs: [0, 0], ctildes: [3.6159875163611992]}
    - {mu0: 1, rank: 2, ndensity: 1, num_ms_combs: 2, mus: [0, 0], ns: [1, 1], ls: [1, 1], ms_combs: [0, 0, 1, -1], ctildes: [0.50472499258856574, -1.0094499851771312]}
    - {mu0: 1, rank: 2, ndensity: 1, num_ms_combs: 3, mus: [0, 0], ns: [1, 1], ls: [2, 2], ms_combs: [0, 0, 1, -1, 2, -2], ctildes: [-0.07732366369571271, 0.15464732739142545, -0.15464732739142548]}
    - {mu0: 1, rank: 2, ndensity: 1, num_ms_combs: 4, mus: [0, 0], ns: [1, 1], ls: [3, 3], ms_combs: [0, 0, 1, -1, 2, -2, 3, -3], ctildes: [-0.058899844932807588, 0.11779968986561518, -0.11779968986561516, 0.11779968986561516]}
    - {mu0: 1, rank: 2, ndensity: 1, num_ms_combs: 1, mus: [0, 0], ns: [1, 2], ls: [0, 0], ms_combs: [0, 0], ctildes: [-4.3983738902680596]}
    - {mu0: 1, rank: 2, ndensity: 1, num_ms_combs: 2, mus: [0, 0], ns: [1, 2], ls: [1, 1], ms_combs: [0, 0, 1, -1], ctildes: [-0.3604520885758935, 0.7209041771517869]}
    - {mu0: 1, rank: 2, ndensity: 1, num_ms_combs: 3, mus: [0, 0], ns: [1, 2], ls: [2, 2], ms_combs: [0, 0, 1, -1, 2, -2], ctildes: [0.293029944990846, -0.58605988998169201, 0.58605988998169223]}
    - {mu0: 1, rank: 2, ndensity: 1, num_ms_combs: 4, mus: [0, 0], ns: [1, 2], ls: [3, 3], ms_combs: [0, 0, 1, -1, 2, -2, 3, -3], ctildes: [0.098754355848053421, -0.19750871169610684, 0.19750871169610681, -0.19750871169610681]}
    - {mu0: 1, rank: 2, ndensity: 1, num_ms_combs: 1, mus: [0, 0], ns: [1, 3], ls: [0, 0], ms_combs: [0, 0], ctildes: [0.75336074561194089]}
    - {mu0: 1, rank: 2, ndensity: 1, num_ms_combs: 2, mus: [0, 0], ns: [1, 3], ls: [1, 1], ms_combs: [0, 0, 1, -1], ctildes: [-0.052581449826354112, 0.10516289965270821]}
    - {mu0: 1, rank: 2, ndensity: 1, num_ms_combs: 3, mus: [0, 0], ns: [1, 3], ls: [2, 2], ms_combs: [0, 0, 1, -1, 2, -2], ctildes: [-0.0053099785238499026, 0.010619957047699805, -0.010619957047699809]}
    - {mu0: 1, rank: 2, ndensity: 1, num_ms_combs: 4, mus: [0, 0], ns: [1, 3], ls: [3, 3], ms_combs: [0, 0, 1, -1, 2, -2, 3, -3], ctildes: [-0.023648360746246412, 0.047296721492492824, -0.047296721492492817, 0.047296721492492817]}
    - {mu0: 1, rank: 2, ndensity: 1, num_ms_combs: 1, mus: [0, 0], ns: [2, 2], ls: [0, 0], ms_combs: [0, 0], ctildes: [1.2268869466485586]}
    - {mu0: 1, rank: 2, ndensity: 1, num_ms_combs: 2, mus: [0, 0], ns: [2, 2], ls: [1, 1], ms_combs: [0, 0, 1, -1], ctildes: [0.09470039270207356, -0.18940078540414707]}
    - {mu0: 1, rank: 2, ndensity: 1, num_ms_combs: 3, mus: [0, 0], ns: [2, 2], ls: [2, 2], ms_combs: [0, 0, 1, -1, 2, -2], ctildes: [-0.20394378177527803, 0.40788756355055605, -0.40788756355055616]}
    - {mu0: 1, rank: 2, ndensity: 1, num_ms_combs: 4, mus: [0, 0], ns: [2, 2], ls: [3, 3], ms_combs: [0, 0, 1, -1, 2, -2, 3, -3], ctildes: [-0.02541075037988735, 0.0508215007597747, -0.050821500759774693, 0.050821500759774693]}
    - {mu0: 1, rank: 2, ndensity: 1, num_ms_combs: 1, mus: [0, 0], ns: [2, 3], ls: [0, 0], ms_combs: [0, 0], ctildes: [-0.39820487765889317]}
    - {mu0: 1, rank: 2, ndensity: 1, num_ms_combs: 2, mus: [0, 0], ns: [2, 3], ls: [1, 1], ms_combs: [0, 0, 1, -1], ctildes: [0.13846126310788212, -0.27692252621576419]}
    - {mu0: 1, rank: 2, ndensity: 1, num_ms_combs: 3, mus: [0, 0], ns: [2, 3], ls: [2, 2], ms_combs: [0, 0, 1, -1, 2, -2], ctildes: [0.063131414495873492, -0.12626282899174701, 0.12626282899174704]}
    - {mu0: 1, rank: 2, ndensity: 1, num_ms_combs: 4, mus: [0, 0], ns: [2, 3], ls: [3, 3], ms_combs: [0, 0, 1, -1, 2, -2, 3, -3], ctildes: [0.03264216978815758, -0.065284339576315159, 0.065284339576315145, -0.065284339576315145]}
    - {mu0: 1, rank: 2, ndensity: 1, num_ms_combs: 1, mus: [0, 0], ns: [3, 3], ls: [0, 0], ms_combs: [0, 0], ctildes: [0.045899738382217802]}
    - {mu0: 1, rank: 2, ndensity: 1, num_ms_combs: 2, mus: [0, 0], ns: [3, 3], ls: [1, 1], ms_combs: [0, 0, 1, -1], ctildes: [-0.026977200912780726, 0.053954401825561445]}
    - {mu0: 1, rank: 2, ndensity: 1, num_ms_combs: 3, mus: [0, 0], ns: [3, 3], ls: [2, 2], ms_combs: [0, 0, 1, -1, 2, -2], ctildes: [0.0020923285325650715, -0.0041846570651301431, 0.0041846570651301448]}
    - {mu0: 1, rank: 2, ndensity: 1, num_ms_combs: 4, mus: [0, 0], ns: [3, 3], ls: [3, 3], ms_combs: [0, 0, 1, -1, 2, -2, 3, -3], ctildes: [-0.0096605343013051719, 0.019321068602610344, -0.01932106860261034, 0.01932106860261034]}
    - {mu0: 1, rank: 2, ndensity: 1, num_ms_combs: 1, mus: [0, 1], ns: [1, 1], ls: [0, 0], ms_combs: [0, 0], ctildes: [-2.0363469754594363]}
    - {mu0: 1, rank: 2, ndensity: 1, num_ms_combs: 2, mus: [0, 1], ns: [1, 1], ls: [1, 1], ms_combs: [0, 0, 1, -1], ctildes: [-2.8373301750765196, 5.6746603501530384]}
    - {mu0: 1, rank: 2, ndensity: 1, num_ms_combs: 3, mus: [0, 1], ns: [1, 1], ls: [2, 2], ms_combs: [0, 0, 1, -1, 2, -2], ctildes: [-0.47324152442076706, 0.94648304884153422, -0.94648304884153445]}
    - {mu0: 1, rank: 2, ndensity: 1, num_ms_combs: 4, mus: [0, 1], ns: [1, 1], ls: [3, 3], ms_combs: [0, 0, 1, -1, 2, -2, 3, -3], ctildes: [-0.12827318133085849, 0.25654636266171699, -0.25654636266171693, 0.25654636266171693]}
    - {mu0: 1, rank: 2, ndensity: 1, num_ms_combs: 1, mus: [0, 1], ns: [1, 2], ls: [0, 0], ms_combs: [0, 0], ctildes: [-0.0019537773532542508]}
    - {mu0: 1, rank: 2, ndensity: 1, num_ms_combs: 2, mus: [0, 1], ns: [1, 2], ls: [1, 1], ms_combs: [0, 0, 1, -1], ctildes: [0.62359912469580192, -1.2471982493916036]}
    - {mu0: 1, rank: 2, ndensity: 1, num_ms_combs: 3, mus: [0, 1], ns: [1, 2], ls: [2, 2], ms_combs: [0, 0, 1, -1, 2, -2], ctildes: [0.016150384090962946, -0.032300768181925898, 0.032300768181925905]}
    - {mu0: 1, rank: 2, ndensity: 1, num_ms_combs: 4, mus: [0, 1], ns: [1, 2], ls: [3, 3], ms_combs: [0, 0, 1, -1, 2, -2, 3, -3], ctildes: [0.070965209369787619, -0.14193041873957524, 0.14193041873957524, -0.14193041873957524]}
    - {mu0: 1, rank: 2, ndensity: 1, num_ms_combs: 1, mus: [0, 1], ns: [1, 3], ls: [0, 0], ms_combs: [0, 0], ctildes: [0.066319981768107397]}
    - {mu0: 1, rank: 2, ndensity: 1, num_ms_combs: 2, mus: [0, 1], ns: [1, 3], ls: [1, 1], ms_combs: [0, 0, 1, -1], ctildes: [0.0022116528906228764, -0.0044233057812457519]}
    - {mu0: 1, rank: 2, ndensity: 1, num_ms_combs: 3, mus: [0, 1], ns: [1, 3], ls: [2, 2], ms_combs: [0, 0, 1, -1, 2, -2], ctildes: [-0.0075861909725541618, 0.015172381945108327, -0.015172381945108331]}
    - {mu0: 1, rank: 2, ndensity: 1, num_ms_combs: 4, mus: [0, 1], ns: [1, 3], ls: [3, 3], ms_combs: [0, 0, 1, -1, 2, -2, 3, -3], ctildes: [-0.026611514170797535, 0.05322302834159507, -0.053223028341595056, 0.053223028341595056]}
    - {mu0: 1, rank: 2, ndensity: 1, num_ms_combs: 1, mus: [0, 1], ns: [2, 1], ls: [0, 0], ms_combs: [0, 0], ctildes: [0.21129679127191744]}
    - {mu0: 1, rank: 2, ndensity: 1, num_ms_combs: 2, mus: [0, 1], ns: [2, 1], ls: [1, 1], ms_combs: [0, 0, 1, -1], ctildes: [1.0462040682052114, -2.0924081364104223]}
    - {mu0: 1, rank: 2, ndensity: 1, num_ms_combs: 3, mus: [0, 1], ns: [2, 1], ls: [2, 2], ms_combs: [0, 0, 1, -1, 2, -2], ctildes: [-0.14336746426405364, 0.28673492852810734, -0.28673492852810739]}
    - {mu0: 1, rank: 2, ndensity: 1, num_ms_combs: 4, mus: [0, 1], ns: [2, 1], ls: [3, 3], ms_combs: [0, 0, 1, -1, 2, -2, 3, -3], ctildes: [0.082939879470444178, -0.16587975894088836, 0.16587975894088833, -0.16587975894088833]}
    - {mu0: 1, rank: 2, ndensity: 1, num_ms_combs: 1, mus: [0, 1], ns: [2, 2], ls: [0, 0], ms_combs: [0, 0], ctildes: [0.38569019878605798]}
    - {mu0: 1, rank: 2, ndensity: 1, num_ms_combs: 2, mus: [0, 1], ns: [2, 2], ls: [1, 1], ms_combs: [0, 0, 1, -1], ctildes: [0.11077786191783261, -0.22155572383566516]}
    - {mu0: 1, rank: 2, ndensity: 1, num_ms_combs: 3, mus: [0, 1], ns: [2, 2], ls: [2, 2], ms_combs: [0, 0, 1, -1, 2, -2], ctildes: [-0.017096531849533546, 0.034193063699067092, -0.034193063699067099]}
    - {mu0: 1, rank: 2, ndensity: 1, num_ms_combs: 4, mus: [0, 1], ns: [2, 2], ls: [3, 3], ms_combs: [0, 0, 1, -1, 2, -2, 3, -3], ctildes: [-0.10398982259293382, 0.20797964518586765, -0.20797964518586762, 0.20797964518586762]}
    - {mu0: 1, rank: 2, ndensity: 1, num_ms_combs: 1, mus: [0, 1], ns: [2, 3], ls: [0, 0], ms_combs: [0, 0], ctildes: [-0.075104669956822731]}
    - {mu0: 1, rank: 2, ndensity: 1, num_ms_combs: 2, mus: [0, 1], ns: [2, 3], ls: [1, 1], ms_combs: [0, 0, 1, -1], ctildes: [-0.061171818999839249, 0.12234363799967847]}
    - {mu0: 1, rank: 2, ndensity: 1, num_ms_combs: 3, mus: [0, 1], ns: [2, 3], ls: [2, 2], ms_combs: [0, 0, 1, -1, 2, -2], ctildes: [0.068558141703315673, -0.13711628340663135, 0.1371162834066314]}
    - {mu0: 1, rank: 2, ndensity: 1, num_ms_combs: 4, mus: [0, 1], ns: [2, 3], ls: [3, 3], ms_combs: [0, 0, 1, -1, 2, -2, 3, -3], ctildes: [0.036697600432032323, -0.073395200864064647, 0.073395200864064633, -0.073395200864064633]}
    - {mu0: 1, rank: 2, ndensity: 1, num_ms_combs: 1, mus: [0, 1], ns: [3, 1], ls: [0, 0], ms_combs: [0, 0], ctildes: [0.030929229095822196]}
    - {mu0: 1, rank: 2, ndensity: 1, num_ms_combs: 2, mus: [0, 1], ns: [3, 1], ls: [1, 1], ms_combs: [0, 0, 1, -1], ctildes: [-0.055341641171582821, 0.11068328234316563]}
    - {mu0: 1, rank: 2, ndensity: 1, num_ms_combs: 3, mus: [0, 1], ns: [3, 1], ls: [2, 2], ms_combs: [0, 0, 1, -1, 2, -2], ctildes: [0.02642807877136559, -0.052856157542731187, 0.052856157542731201]}
    - {mu0: 1, rank: 2, ndensity: 1, num_ms_combs: 4, mus: [0, 1], ns: [3, 1], ls: [3, 3], ms_combs: [0, 0, 1, -1, 2, -2, 3, -3], ctildes: [-0.042807038645368736, 0.085614077290737473, -0.085614077290737459, 0.085614077290737459]}
    - {mu0: 1, rank: 2, ndensity: 1, num_ms_combs: 1, mus: [0, 1], ns: [3, 2], ls: [0, 0], ms_combs: [0, 0], ctildes: [-0.028110085502219075]}
    - {mu0: 1, rank: 2, ndensity: 1, num_ms_combs: 2, mus: [0, 1], ns: [3, 2], ls: [1, 1], ms_combs: [0, 0, 1, -1], ctildes: [-0.021880823415055345, 0.043761646830110676]}
    - {mu0: 1, rank: 2, ndensity: 1, num_ms_combs: 3, mus: [0, 1], ns: [3, 2], ls: [2, 2], ms_combs: [0, 0, 1, -1, 2, -2], ctildes: [0.087889179211756777, -0.17577835842351358, 0.17577835842351364]}
    - {mu0: 1, rank: 2, ndensity: 1, num_ms_combs: 4, mus: [0, 1], ns: [3, 2], ls: [3, 3], ms_combs: [0, 0, 1, -1, 2, -2, 3, -3], ctildes: [0.044955489463122049, -0.089910978926244098, 0.089910978926244084, -0.089910978926244084]}
    - {mu0: 1, rank: 2, ndensity: 1, num_ms_combs: 1, mus: [0, 1], ns: [3, 3], ls: [0, 0], ms_combs: [0, 0], ctildes: [0.010469904014519159]}
    - {mu0: 1, rank: 2, ndensity: 1, num_ms_combs: 2, mus: [0, 1], ns: [3, 3], ls: [1, 1], ms_combs: [0, 0, 1, -1], ctildes: [0.0096790518861826561, -0.019358103772365309]}
    - {mu0: 1, rank: 2, ndensity: 1, num_ms_combs: 3, mus: [0, 1], ns: [3, 3], ls: [2, 2], ms_combs: [0, 0, 1, -1, 2, -2], ctildes: [-0.045768518147580088, 0.09153703629516019, -0.091537036295160204]}
    - {mu0: 1, rank: 2, ndensity: 1, num_ms_combs: 4, mus: [0, 1], ns: [3, 3], ls: [3, 3], ms_combs: [0, 0, 1, -1, 2, -2, 3, -3], ctildes: [-0.0033237675702942338, 0.0066475351405884675, -0.0066475351405884666, 0.0066475351405884666]}
    - {mu0: 1, rank: 2, ndensity: 1, num_ms_combs: 1, mus: [1, 1], ns: [1, 1], ls: [0, 0], ms_combs: [0, 0], ctildes: [-0.55775475330861146]}
    - {mu0: 1, rank: 2, ndensity: 1, num_ms_combs: 2, mus: [1, 1], ns: [1, 1], ls: [1, 1], ms_combs: [0, 0, 1, -1], ctildes: [-0.20403470548927846, 0.40806941097855687]}
    - {mu0: 1, rank: 2, ndensity: 1, num_ms_combs: 3, mus: [1, 1], ns: [1, 1], ls: [2, 2], ms_combs: [0, 0, 1, -1, 2, -2], ctildes: [-0.19571123818898528, 0.39142247637797062, -0.39142247637797073]}
    - {mu0: 1, rank: 2, ndensity: 1, num_ms_combs: 4, mus: [1, 1], ns: [1, 1], ls: [3, 3], ms_combs: [0, 0, 1, -1, 2, -2, 3, -3], ctildes: [0.0065619634765180851, -0.01312392695303617, 0.013123926953036168, -0.013123926953036168]}
    - {mu0: 1, rank: 2, ndensity: 1, num_ms_combs: 1, mus: [1, 1], ns: [1, 2], ls: [0, 0], ms_combs: [0, 0], ctildes: [0.87704274579561736]}
    - {mu0: 1, rank: 2, ndensity: 1, num_ms_combs: 2, mus: [1, 1], ns: [1, 2], ls: [1, 1], ms_combs: [0, 0, 1, -1], ctildes: [0.59896609861015504, -1.1979321972203099]}
    - {mu0: 1, rank: 2, ndensity: 1, num_ms_combs: 3, mus: [1, 1], ns: [1, 2], ls: [2, 2], ms_combs: [0, 0, 1, -1, 2, -2], ctildes: [0.16861835589686436, -0.33723671179372877, 0.33723671179372883]}
    - {mu0: 1, rank: 2, ndensity: 1, num_ms_combs: 4, mus: [1, 1], ns: [1, 2], ls: [3, 3], ms_combs: [0, 0, 1, -1, 2, -2, 3, -3], ctildes: [-0.016457502840684108, 0.032915005681368216, -0.032915005681368216, 0.032915005681368216]}
    - {mu0: 1, rank: 2, ndensity: 1, num_ms_combs: 1, mus: [1, 1], ns: [1, 3], ls: [0, 0], ms_combs: [0, 0], ctildes: [-0.051194111887624412]}
    - {mu0: 1, rank: 2, ndensity: 1, num_ms_combs: 2, mus: [1, 1], ns: [1, 3], ls: [1, 1], ms_combs: [0, 0, 1, -1], ctildes: [-0.044602933927297313, 0.089205867854594612]}
    - {mu0: 1, rank: 2, ndensity: 1, num_ms_combs: 3, mus: [1, 1], ns: [1, 3], ls: [2, 2], ms_combs: [0, 0, 1, -1, 2, -2], ctildes: [0.022296579004055839, -0.044593158008111686, 0.0445931580081117]}
    - {mu0: 1, rank: 2, ndensity: 1, num_ms_combs: 4, mus: [1, 1], ns: [1, 3], ls: [3, 3], ms_combs: [0, 0, 1, -1, 2, -2, 3, -3], ctildes: [0.018126173802945591, -0.036252347605891182, 0.036252347605891175, -0.036252347605891175]}
    - {mu0: 1, rank: 2, ndensity: 1, num_ms_combs: 1, mus: [1, 1], ns: [2, 2], ls: [0, 0], ms_combs: [0, 0], ctildes: [-0.10913529721766216]}
    - {mu0: 1, rank: 2, ndensity: 1, num_ms_combs: 2, mus: [1, 1], ns: [2, 2], ls: [1, 1], ms_combs: [0, 0, 1, -1], ctildes: [-0.050372334931558446, 0.10074466986311688]}
    - {mu0: 1, rank: 2, ndensity: 1, num_ms_combs: 3, mus: [1, 1], ns: [2, 2], ls: [2, 2], ms_combs: [0, 0, 1, -1, 2, -2], ctildes: [-0.0001416387403111004, 0.00028327748062220086, -0.00028327748062220091]}
    - {mu0: 1, rank: 2, ndensity: 1, num_ms_combs: 4, mus: [1, 1], ns: [2, 2], ls: [3, 3], ms_combs: [0, 0, 1, -1, 2, -2, 3, -3], ctildes: [6.1419548742744308e-05, -0.00012283909748548862, 0.00012283909748548859, -0.00012283909748548859]}
    - {mu0: 1, rank: 2, ndensity: 1, num_ms_combs: 1, mus: [1, 1], ns: [2, 3], ls: [0, 0], ms_combs: [0, 0], ctildes: [-0.0057690729225596295]}
    - {mu0: 1, rank: 2, ndensity: 1, num_ms_combs: 2, mus: [1, 1], ns: [2, 3], ls: [1, 1], ms_combs: [0, 0, 1, -1], ctildes: [0.017059134835601158, -0.034118269671202309]}
    - {mu0: 1, rank: 2, ndensity: 1, num_ms_combs: 3, mus: [1, 1], ns: [2, 3], ls: [2, 2], ms_combs: [0, 0, 1, -1, 2, -2], ctildes: [-0.00010879230796607502, 0.00021758461593215006, -0.00021758461593215011]}
    - {mu0: 1, rank: 2, ndensity: 1, num_ms_combs: 4, mus: [1, 1], ns: [2, 3], ls: [3, 3], ms_combs: [0, 0, 1, -1, 2, -2, 3, -3], ctildes: [0.0016528092934204339, -0.0033056185868408678, 0.0033056185868408673, -0.0033056185868408673]}
    - {mu0: 1, rank: 2, ndensity: 1, num_ms_combs: 1, mus: [1, 1], ns: [3, 3], ls: [0, 0], ms_combs: [0, 0], ctildes: [0.011441282792505709]}
    - {mu0: 1, rank: 2, ndensity: 1, num_ms_combs: 2, mus: [1, 1], ns: [3, 3], ls: [1, 1], ms_combs: [0, 0, 1, -1], ctildes: [0.0016527152511051383, -0.0033054305022102762]}
    - {mu0: 1, rank: 2, ndensity: 1, num_ms_combs: 3, mus: [1, 1], ns: [3, 3], ls: [2, 2], ms_combs: [0, 0, 1, -1, 2, -2], ctildes: [-0.0040522810169882316, 0.0081045620339764649, -0.0081045620339764667]}
    - {mu0: 1, rank: 2, ndensity: 1, num_ms_combs: 4, mus: [1, 1], ns: [3, 3], ls: [3, 3], ms_combs: [0, 0, 1, -1, 2, -2, 3, -3], ctildes: [-0.0022036220525707075, 0.0044072441051414149, -0.0044072441051414141, 0.0044072441051414141]}
    - {mu0: 1, rank: 3, ndensity: 1, num_ms_combs: 1, mus: [0, 0, 0], ns: [1, 1, 1], ls: [0, 0, 0], ms_combs: [0, 0, 0], ctildes: [0.42220394123518801]}
    - {mu0: 1, rank: 3, ndensity: 1, num_ms_combs: 2, mus: [0, 0, 0], ns: [1, 1, 1], ls: [0, 1, 1], ms_combs: [0, 0, 0, 0, 1, -1], ctildes: [-0.32635020100004308, 0.65270040200008606]}
    - {mu0: 1, rank: 3, ndensity: 1, num_ms_combs: 3, mus: [0, 0, 0], ns: [1, 1, 1], ls: [0, 2, 2], ms_combs: [0, 0, 0, 0, 1, -1, 0, 2, -2], ctildes: [-0.00581071386504824, 0.011621427730096482, -0.011621427730096485]}
    - {mu0: 1, rank: 3, ndensity: 1, num_ms_combs: 4, mus: [0, 0, 0], ns: [1, 1, 1], ls: [1, 1, 2], ms_combs: [-1, 1, 0, 0, 0, 0, 0, 1, -1, 1, 1, -2], ctildes: [-0.24466513251732747, -0.24466513251732741, 0.84754488072116685, -0.59930473251788074]}
    - {mu0: 1, rank: 3, ndensity: 1, num_ms_combs: 5, mus: [0, 0, 0], ns: [1, 1, 1], ls: [2, 2, 2], ms_combs: [-2, 0, 2, -2, 1, 1, -1, -1, 2, -1, 0, 1, 0, 0, 0], ctildes: [0.04763840414269406, -0.038896594103362915, -0.019448297051681458, 0.023819202071347023, -0.0079397340237823393]}
    - {mu0: 1, rank: 3, ndensity: 1, num_ms_combs: 1, mus: [0, 0, 0], ns: [1, 1, 2], ls: [0, 0, 0], ms_combs: [0, 0, 0], ctildes: [0.31379619840237716]}
    - {mu0: 1, rank: 3, ndensity: 1, num_ms_combs: 2, mus: [0, 0, 0], ns: [1, 1, 2], ls: [0, 1, 1], ms_combs: [0, 0, 0, 0, 1, -1], ctildes: [0.74168398208985542, -1.4833679641797106]}
    - {mu0: 1, rank: 3, ndensity: 1, num_ms_combs: 3, mus: [0, 0, 0], ns: [1, 1, 2], ls: [0, 2, 2], ms_combs: [0, 0, 0, 0, 1, -1, 0, 2, -2], ctildes: [-0.17036147022573467, 0.34072294045146934, -0.34072294045146945]}
    - {mu0: 1, rank: 3, ndensity: 1, num_ms_combs: 2, mus: [0, 0, 0], ns: [1, 1, 2], ls: [1, 1, 0], ms_combs: [0, 0, 0, 1, -1, 0], ctildes: [0.34915383060305394, -0.69830766120610777]}
    - {mu0: 1, rank: 3, ndensity: 1, num_ms_combs: 4, mus: [0, 0, 0], ns: [1, 1, 2], ls: [1, 1, 2], ms_combs: [-1, 1, 0, 0, 0, 0, 0, 1, -1, 1, 1, -2], ctildes: [0.14682541954551095, 0.14682541954551095, -0.50861817299088308, 0.35964735915656598]}
    - {mu0: 1, rank: 3, ndensity: 1, num_ms_combs: 5, mus: [0, 0, 0], ns: [1, 1, 2], ls: [1, 2, 1], ms_combs: [0, 0, 0, 0, 1, -1, 1, -2, 1, 1, -1, 0, 1, 0, -1], ctildes: [0.018476460771876174, -0.032002168800942817, 0.045257901143646452, -0.032002168800942817, 0.018476460771876174]}
    - {mu0: 1, rank: 3, ndensity: 1, num_ms_combs: 3, mus: [0, 0, 0], ns: [1, 1, 2], ls: [2, 2, 0], ms_combs: [0, 0, 0, 1, -1, 0, 2, -2, 0], ctildes: [0.044776716061461386, -0.089553432122922785, 0.089553432122922799]}
    - {mu0: 1, rank: 3, ndensity: 1, num_ms_combs: 8, mus: [0, 0, 0], ns: [1, 1, 2], ls: [2, 2, 2], ms_combs: [-2, 1, 1, -2, 2, 0, -1, 1, 0, -1, 2, -1, 0, 0, 0, 0, 1, -1, 0, 2, -2, 1, 1, -2], ctildes: [0.042031812606229867, -0.03431883128318157, -0.017159415641590785, 0.042031812606229867, 0.017159415641590785, -0.03431883128318157, -0.068637662566363181, 0.042031812606229867]}
    - {mu0: 1, rank: 3, ndensity: 1, num_ms_combs: 1, mus: [0, 0, 0], ns: [1, 2, 2], ls: [0, 0, 0], ms_combs: [0, 0, 0], ctildes: [0.069270450561973812]}
    - {mu0: 1, rank: 3, ndensity: 1, num_ms_combs: 2, mus: [0, 0, 0], ns: [1, 2, 2], ls: [0, 1, 1], ms_combs: [0, 0, 0, 0, 1, -1], ctildes: [0.044880590897337466, -0.089761181794674919]}
    - {mu0: 1, rank: 3, ndensity: 1, num_ms_combs: 3, mus: [0, 0, 0], ns: [1, 2, 2], ls: [0, 2, 2], ms_combs: [0, 0, 0, 0, 1, -1, 0, 2, -2], ctildes: [0.17707958711105504, -0.35415917422211013, 0.35415917422211018]}
    - {mu0: 1, rank: 3, ndensity: 1, num_ms_combs: 2, mus: [0, 0, 0], ns: [1, 2, 2], ls: [1, 0, 1], ms_combs: [0, 0, 0, 1, 0, -1], ctildes: [-0.13053122863509234, 0.26106245727018462]}
    - {mu0: 1, rank: 3, ndensity: 1, num_ms_combs: 5, mus: [0, 0, 0], ns: [1, 2, 2], ls: [1, 1, 2], ms_combs: [0, 0, 0, 0, 1, -1, 1, -1, 0, 1, 0, -1, 1, 1, -2], ctildes: [0.1567604830349095, -0.27151712123550237, 0.15676048303490953, -0.27151712123550237, 0.38398319526774738]}
    - {mu0: 1, rank: 3, ndensity: 1, num_ms_combs: 3, mus: [0, 0, 0], ns: [1, 2, 2], ls: [2, 0, 2], ms_combs: [0, 0, 0, 1, 0, -1, 2, 0, -2], ctildes: [0.096399051197017208, -0.19279810239403444, 0.1927981023940345]}
    - {mu0: 1, rank: 3, ndensity: 1, num_ms_combs: 4, mus: [0, 0, 0], ns: [1, 2, 2], ls: [2, 1, 1], ms_combs: [0, -1, 1, 0, 0, 0, 1, -1, 0, 2, -1, -1], ctildes: [-0.047498309028862311, -0.047498309028862318, 0.16453896902319415, -0.11634662076574386]}
    - {mu0: 1, rank: 3, ndensity: 1, num_ms_combs: 7, mus: [0, 0, 0], ns: [1, 2, 2], ls: [2, 2, 2], ms_combs: [0, -2, 2, 0, -1, 1, 0, 0, 0, 1, -2, 1, 1, -1, 0, 2, -2, 0, 2, -1, -1], ctildes: [0.048707706472013272, 0.024353853236006622, -0.024353853236006622, -0.1193090273976903, 0.048707706472013244, 0.097415412944026517, -0.059654513698845148]}
    - {mu0: 1, rank: 3, ndensity: 1, num_ms_combs: 1, mus: [0, 0, 0], ns: [2, 2, 2], ls: [0, 0, 0], ms_combs: [0, 0, 0], ctildes: [-0.086970355293939192]}
    - {mu0: 1, rank: 3, ndensity: 1, num_ms_combs: 2, mus: [0, 0, 0], ns: [2, 2, 2], ls: [0, 1, 1], ms_combs: [0, 0, 0, 0, 1, -1], ctildes: [-0.095257023804284233, 0.19051404760856844]}
    - {mu0: 1, rank: 3, ndensity: 1, num_ms_combs: 3, mus: [0, 0, 0], ns: [2, 2, 2], ls: [0, 2, 2], ms_combs: [0, 0, 0, 0, 1, -1, 0, 2, -2], ctildes: [-0.0484111111823202, 0.096822222364640415, -0.096822222364640428]}
    - {mu0: 1, rank: 3, ndensity: 1, num_ms_combs: 4, mus: [0, 0, 0], ns: [2, 2, 2], ls: [1, 1, 2], ms_combs: [-1, 1, 0, 0, 0, 0, 0, 1, -1, 1, 1, -2], ctildes: [-0.031326626508501376, -0.031326626508501369, 0.10851861748491683, -0.07673425030857374]}
    - {mu0: 1, rank: 3, ndensity: 1, num_ms_combs: 5, mus: [0, 0, 0], ns: [2, 2, 2], ls: [2, 2, 2], ms_combs: [-2, 0, 2, -2, 1, 1, -1, -1, 2, -1, 0, 1, 0, 0, 0], ctildes: [-0.023999986559617017, 0.01959590696823867, 0.0097979534841193348, -0.011999993279808505, 0.0039999977599361677]}
    - {mu0: 1, rank: 3, ndensity: 1, num_ms_combs: 1, mus: [0, 0, 1], ns: [1, 1, 1], ls: [0, 0, 0], ms_combs: [0, 0, 0], ctildes: [1.4377697695102745]}
    - {mu0: 1, rank: 3, ndensity: 1, num_ms_combs: 2, mus: [0, 0, 1], ns: [1, 1, 1], ls: [0, 1, 1], ms_combs: [0, 0, 0, 0, 1, -1], ctildes: [1.8206299373233128, -3.6412598746466247]}
    - {mu0: 1, rank: 3, ndensity: 1, num_ms_combs: 3, mus: [0, 0, 1], ns: [1, 1, 1], ls: [0, 2, 2], ms_combs: [0, 0, 0, 0, 1, -1, 0, 2, -2], ctildes: [-0.13700294464214569, 0.27400588928429143, -0.27400588928429148]}
    - {mu0: 1, rank: 3, ndensity: 1, num_ms_combs: 2, mus: [0, 0, 1], ns: [1, 1, 1], ls: [1, 1, 0], ms_combs: [0, 0, 0, 1, -1, 0], ctildes: [0.27182781686622259, -0.54365563373244508]}
    - {mu0: 1, rank: 3, ndensity: 1, num_ms_combs: 4, mus: [0, 0, 1], ns: [1, 1, 1], ls: [1, 1, 2], ms_combs: [-1, 1, 0, 0, 0, 0, 0, 1, -1, 1, 1, -2], ctildes: [0.045537705283921211, 0.045537705283921204, -0.15774723842369853, 0.11154414200284836]}
    - {mu0: 1, rank: 3, ndensity: 1, num_ms_combs: 5, mus: [0, 0, 1], ns: [1, 1, 1], ls: [1, 2, 1], ms_combs: [0, 0, 0, 0, 1, -1, 1, -2, 1, 1, -1, 0, 1, 0, -1], ctildes: [-0.017629693000068225, 0.030535523997959554, -0.043183752172083506, 0.030535523997959554, -0.017629693000068222]}
    - {mu0: 1, rank: 3, ndensity: 1, num_ms_combs: 3, mus: [0, 0, 1], ns: [1, 1, 1], ls: [2, 2, 0], ms_combs: [0, 0, 0, 1, -1, 0, 2, -2, 0], ctildes: [-0.097926992235728996, 0.19585398447145802, -0.19585398447145808]}
    - {mu0: 1, rank: 3, ndensity: 1, num_ms_combs: 8, mus: [0, 0, 1], ns: [1, 1, 1], ls: [2, 2, 2], ms_combs: [-2, 1, 1, -2, 2, 0, -1, 1, 0, -1, 2, -1, 0, 0, 0, 0, 1, -1, 0, 2, -2, 1, 1, -2], ctildes: [-0.075686410926227118, 0.061797695743955314, 0.030898847871977657, -0.075686410926227118, -0.030898847871977657, 0.061797695743955314, 0.1235953914879107, -0.075686410926227118]}
    - {mu0: 1, rank: 3, ndensity: 1, num_ms_combs: 1, mus: [0, 0, 1], ns: [1, 1, 2], ls: [0, 0, 0], ms_combs: [0, 0, 0], ctildes: [0.36005994600529534]}
    - {mu0: 1, rank: 3, ndensity: 1, num_ms_combs: 2, mus: [0, 0, 1], ns: [1, 1, 2], ls: [0, 1, 1], ms_combs: [0, 0, 0, 0, 1, -1], ctildes: [0.047333375736172009, -0.094666751472344005]}
    - {mu0: 1, rank: 3, ndensity: 1, num_ms_combs: 3, mus: [0, 0, 1], ns: [1, 1, 2], ls: [0, 2, 2], ms_combs: [0, 0, 0, 0, 1, -1, 0, 2, -2], ctildes: [0.08319160204355866, -0.16638320408711732, 0.16638320408711738]}
    - {mu0: 1, rank: 3, ndensity: 1, num_ms_combs: 2, mus: [0, 0, 1], ns: [1, 1, 2], ls: [1, 1, 0], ms_combs: [0, 0, 0, 1, -1, 0], ctildes: [0.20888637128921519, -0.41777274257843033]}
    - {mu0: 1, rank: 3, ndensity: 1, num_ms_combs: 4, mus: [0, 0, 1], ns: [1, 1, 2], ls: [1, 1, 2], ms_combs: [-1, 1, 0, 0, 0, 0, 0, 1, -1, 1, 1, -2], ctildes: [0.064712269665292754, 0.06471226966529274, -0.22416987786677059, 0.15851204077735365]}
    - {mu0: 1, rank: 3, ndensity: 1, num_ms_combs: 5, mus: [0, 0, 1], ns: [1, 1, 2], ls: [1, 2, 1], ms_combs: [0, 0, 0, 0, 1, -1, 1, -2, 1, 1, -1, 0, 1, 0, -1], ctildes: [0.060667640799170142, -0.10507943623950122, 0.14860476385642152, -0.10507943623950122, 0.060667640799170135]}
    - {mu0: 1, rank: 3, ndensity: 1, num_ms_combs: 3, mus: [0, 0, 1], ns: [1, 1, 2], ls: [2, 2, 0], ms_combs: [0, 0, 0, 1, -1, 0, 2, -2, 0], ctildes: [0.094492824272086468, -0.18898564854417296, 0.18898564854417302]}
    - {mu0: 1, rank: 3, ndensity: 1, num_ms_combs: 8, mus: [0, 0, 1], ns: [1, 1, 2], ls: [2, 2, 2], ms_combs: [-2, 1, 1, -2, 2, 0, -1, 1, 0, -1, 2, -1, 0, 0, 0, 0, 1, -1, 0, 2, -2, 1, 1, -2], ctildes: [0.057642039904301848, -0.047064528499561997, -0.023532264249780999, 0.057642039904301848, 0.023532264249780999, -0.047064528499561997, -0.09412905699912405, 0.057642039904301848]}
    - {mu0: 1, rank: 3, ndensity: 1, num_ms_combs: 1, mus: [0, 0, 1], ns: [1, 2, 1], ls: [0, 0, 0], ms_combs: [0, 0, 0], ctildes: [1.0019695029353615]}
    - {mu0: 1, rank: 3, ndensity: 1, num_ms_combs: 2, mus: [0, 0, 1], ns: [1, 2, 1], ls: [0, 1, 1], ms_combs: [0, 0, 0, 0, 1, -1], ctildes: [0.11351004532709516, -0.22702009065419029]}
    - {mu0: 1, rank: 3, ndensity: 1, num_ms_combs: 3, mus: [0, 0, 1], ns: [1, 2, 1], ls: [0, 2, 2], ms_combs: [0, 0, 0, 0, 1, -1, 0, 2, -2], ctildes: [0.25424766748442057, -0.50849533496884125, 0.50849533496884136]}
    - {mu0: 1, rank: 3, ndensity: 1, num_ms_combs: 2, mus: [0, 0, 1], ns: [1, 2, 1], ls: [1, 0, 1], ms_combs: [0, 0, 0, 1, 0, -1], ctildes: [-0.019952824215131983, 0.039905648430263958]}
    - {mu0: 1, rank: 3, ndensity: 1, num_ms_combs: 2, mus: [0, 0, 1], ns: [1, 2, 1], ls: [1, 1, 0], ms_combs: [0, 0, 0, 1, -1, 0], ctildes: [0.65134221961074168, -1.3026844392214831]}
    - {mu0: 1, rank: 3, ndensity: 1, num_ms_combs: 5, mus: [0, 0, 1], ns: [1, 2, 1], ls: [1, 1, 2], ms_combs: [0, 0, 0, 0, 1, -1, 1, -1, 0, 1, 0, -1, 1, 1, -2], ctildes: [0.17455157353468326, -0.30233219390316646, 0.17455157353468329, -0.30233219390316646, 0.42756228895987042]}
    - {mu0: 1, rank: 3, ndensity: 1, num_ms_combs: 5, mus: [0, 0, 1], ns: [1, 2, 1], ls: [1, 2, 1], ms_combs: [0, 0, 0, 0, 1, -1, 1, -2, 1, 1, -1, 0, 1, 0, -1], ctildes: [0.30016636083661485, -0.5199033876920699, 0.7352544219978423, -0.5199033876920699, 0.30016636083661485]}
    - {mu0: 1, rank: 3, ndensity: 1, num_ms_combs: 3, mus: [0, 0, 1], ns: [1, 2, 1], ls: [2, 0, 2], ms_combs: [0, 0, 0, 1, 0, -1, 2, 0, -2], ctildes: [0.22249635856431946, -0.44499271712863897, 0.44499271712863908]}
    - {mu0: 1, rank: 3, ndensity: 1, num_ms_combs: 5, mus: [0, 0, 1], ns: [1, 2, 1], ls: [2, 1, 1], ms_combs: [0, 0, 0, 0, 1, -1, 1, -1, 0, 1, 0, -1, 2, -1, -1], ctildes: [0.021856059848288357, 0.021856059848288353, -0.037855806110501565, -0.037855806110501565, 0.053536194416037589]}
    - {mu0: 1, rank: 3, ndensity: 1, num_ms_combs: 3, mus: [0, 0, 1], ns: [1, 2, 1], ls: [2, 2, 0], ms_combs: [0, 0, 0, 1, -1, 0, 2, -2, 0], ctildes: [0.11748889167963526, -0.23497778335927055, 0.23497778335927061]}
    - {mu0: 1, rank: 3, ndensity: 1, num_ms_combs: 10, mus: [0, 0, 1], ns: [1, 2, 1], ls: [2, 2, 2], ms_combs: [0, 0, 0, 0, 1, -1, 0, 2, -2, 1, -2, 1, 1, -1, 0, 1, 0, -1, 1, 1, -2, 2, -2, 0, 2, -1, -1, 2, 0, -2], ctildes: [0.047842456881387364, -0.047842456881387364, -0.095684913762774784, 0.11718960740050485, -0.047842456881387364, -0.047842456881387364, 0.11718960740050485, -0.095684913762774729, 0.11718960740050485, -0.095684913762774784]}
    - {mu0: 1, rank: 3, ndensity: 1, num_ms_combs: 1, mus: [0, 0, 1], ns: [1, 2, 2], ls: [0, 0, 0], ms_combs: [0, 0, 0], ctildes: [-0.49049430262900739]}
    - {mu0: 1, rank: 3, ndensity: 1, num_ms_combs: 2, mus: [0, 0, 1], ns: [1, 2, 2], ls: [0, 1, 1], ms_combs: [0, 0, 0, 0, 1, -1], ctildes: [-0.078748715749862475, 0.15749743149972492]}
    - {mu0: 1, rank: 3, ndensity: 1, num_ms_combs: 3, mus: [0, 0, 1], ns: [1, 2, 2], ls: [0, 2, 2], ms_combs: [0, 0, 0, 0, 1, -1, 0, 2, -2], ctildes: [0.080304918107116666, -0.16060983621423336, 0.16060983621423339]}
    - {mu0: 1, rank: 3, ndensity: 1, num_ms_combs: 2, mus: [0, 0, 1], ns: [1, 2, 2], ls: [1, 0, 1], ms_combs: [0, 0, 0, 1, 0, -1], ctildes: [-0.11887522310357544, 0.23775044620715083]}
    - {mu0: 1, rank: 3, ndensity: 1, num_ms_combs: 2, mus: [0, 0, 1], ns: [1, 2, 2], ls: [1, 1, 0], ms_combs: [0, 0, 0, 1, -1, 0], ctildes: [-0.31536625136079982, 0.63073250272159953]}
    - {mu0: 1, rank: 3, ndensity: 1, num_ms_combs: 5, mus: [0, 0, 1], ns: [1, 2, 2], ls: [1, 1, 2], ms_combs: [0, 0, 0, 0, 1, -1, 1, -1, 0, 1, 0, -1, 1, 1, -2], ctildes: [-0.058772119888812771, 0.10179629771595307, -0.058772119888812778, 0.10179629771595307, -0.14396170482927018]}
    - {mu0: 1, rank: 3, ndensity: 1, num_ms_combs: 5, mus: [0, 0, 1], ns: [1, 2, 2], ls: [1, 2, 1], ms_combs: [0, 0, 0, 0, 1, -1, 1, -2, 1, 1, -1, 0, 1, 0, -1], ctildes: [0.023645771240989738, -0.040955677173545216, 0.057920074115001823, -0.040955677173545216, 0.023645771240989735]}
    - {mu0: 1, rank: 3, ndensity: 1, num_ms_combs: 3, mus: [0, 0, 1], ns: [1, 2, 2], ls: [2, 0, 2], ms_combs: [0, 0, 0, 1, 0, -1, 2, 0, -2], ctildes: [-0.10104023261175145, 0.20208046522350293, -0.20208046522350298]}
    - {mu0: 1, rank: 3, ndensity: 1, num_ms_combs: 5, mus: [0, 0, 1], ns: [1, 2, 2], ls: [2, 1, 1], ms_combs: [0, 0, 0, 0, 1, -1, 1, -1, 0, 1, 0, -1, 2, -1, -1], ctildes: [-0.095168420368805212, -0.095168420368805198, 0.16483653935484346, 0.16483653935484346, -0.23311406953026603]}
    - {mu0: 1, rank: 3, ndensity: 1, num_ms_combs: 3, mus: [0, 0, 1], ns: [1, 2, 2], ls: [2, 2, 0], ms_combs: [0, 0, 0, 1, -1, 0, 2, -2, 0], ctildes: [-0.019121352231762045, 0.038242704463524096, -0.038242704463524103]}
    - {mu0: 1, rank: 3, ndensity: 1, num_ms_combs: 10, mus: [0, 0, 1], ns: [1, 2, 2], ls: [2, 2, 2], ms_combs: [0, 0, 0, 0, 1, -1, 0, 2, -2, 1, -2, 1, 1, -1, 0, 1, 0, -1, 1, 1, -2, 2, -2, 0, 2, -1, -1, 2, 0, -2], ctildes: [-0.035304333371678626, 0.035304333371678626, 0.070608666743357293, -0.086477602469724663, 0.035304333371678626, 0.035304333371678626, -0.086477602469724663, 0.070608666743357251, -0.086477602469724663, 0.070608666743357293]}
    - {mu0: 1, rank: 3, ndensity: 1, num_ms_combs: 1, mus: [0, 0, 1], ns: [2, 2, 1], ls: [0, 0, 0], ms_combs: [0, 0, 0], ctildes: [-0.45072721283638784]}
    - {mu0: 1, rank: 3, ndensity: 1, num_ms_combs: 2, mus: [0, 0, 1], ns: [2, 2, 1], ls: [0, 1, 1], ms_combs: [0, 0, 0, 0, 1, -1], ctildes: [-0.26757241552288585, 0.5351448310457716]}
    - {mu0: 1, rank: 3, ndensity: 1, num_ms_combs: 3, mus: [0, 0, 1], ns: [2, 2, 1], ls: [0, 2, 2], ms_combs: [0, 0, 0, 0, 1, -1, 0, 2, -2], ctildes: [-0.1313441226153349, 0.26268824523066986, -0.26268824523066991]}
    - {mu0: 1, rank: 3, ndensity: 1, num_ms_combs: 2, mus: [0, 0, 1], ns: [2, 2, 1], ls: [1, 1, 0], ms_combs: [0, 0, 0, 1, -1, 0], ctildes: [-0.22593324821461114, 0.45186649642922222]}
    - {mu0: 1, rank: 3, ndensity: 1, num_ms_combs: 4, mus: [0, 0, 1], ns: [2, 2, 1], ls: [1, 1, 2], ms_combs: [-1, 1, 0, 0, 0, 0, 0, 1, -1, 1, 1, -2], ctildes: [-0.077440083851736244, -0.07744008385173623, 0.2682603195472027, -0.1896886910750972]}
    - {mu0: 1, rank: 3, ndensity: 1, num_ms_combs: 5, mus: [0, 0, 1], ns: [2, 2, 1], ls: [1, 2, 1], ms_combs: [0, 0, 0, 0, 1, -1, 1, -2, 1, 1, -1, 0, 1, 0, -1], ctildes: [-0.011995661104163027, 0.02077709450278814, -0.029383248832550463, 0.02077709450278814, -0.011995661104163025]}
    - {mu0: 1, rank: 3, ndensity: 1, num_ms_combs: 3, mus: [0, 0, 1], ns: [2, 2, 1], ls: [2, 2, 0], ms_combs: [0, 0, 0, 1, -1, 0, 2, -2, 0], ctildes: [0.066010086026024789, -0.13202017205204961, 0.13202017205204963]}
